{"learner":{"attributes":{"best_iteration":"334","best_score":"0.24578322816750925","scikit_learn":"{\"_estimator_type\": \"regressor\"}"},"feature_names":[],"feature_types":[],"gradient_booster":{"model":{"cats":{"enc":[],"feature_segments":[],"sorted_idx":[]},"gbtree_model_param":{"num_parallel_tree":"1","num_trees":"385"},"iteration_indptr":[0,1,2,3,4,5,6,7,8,9,10,11,12,13,14,15,16,17,18,19,20,21,22,23,24,25,26,27,28,29,30,31,32,33,34,35,36,37,38,39,40,41,42,43,44,45,46,47,48,49,50,51,52,53,54,55,56,57,58,59,60,61,62,63,64,65,66,67,68,69,70,71,72,73,74,75,76,77,78,79,80,81,82,83,84,85,86,87,88,89,90,91,92,93,94,95,96,97,98,99,100,101,102,103,104,105,106,107,108,109,110,111,112,113,114,115,116,117,118,119,120,121,122,123,124,125,126,127,128,129,130,131,132,133,134,135,136,137,138,139,140,141,142,143,144,145,146,147,148,149,150,151,152,153,154,155,156,157,158,159,160,161,162,163,164,165,166,167,168,169,170,171,172,173,174,175,176,177,178,179,180,181,182,183,184,185,186,187,188,189,190,191,192,193,194,195,196,197,198,199,200,201,202,203,204,205,206,207,208,209,210,211,212,213,214,215,216,217,218,219,220,221,222,223,224,225,226,227,228,229,230,231,232,233,234,235,236,237,238,239,240,241,242,243,244,245,246,247,248,249,250,251,252,253,254,255,256,257,258,259,260,261,262,263,264,265,266,267,268,269,270,271,272,273,274,275,276,277,278,279,280,281,282,283,284,285,286,287,288,289,290,291,292,293,294,295,296,297,298,299,300,301,302,303,304,305,306,307,308,309,310,311,312,313,314,315,316,317,318,319,320,321,322,323,324,325,326,327,328,329,330,331,332,333,334,335,336,337,338,339,340,341,342,343,344,345,346,347,348,349,350,351,352,353,354,355,356,357,358,359,360,361,362,363,364,365,366,367,368,369,370,371,372,373,374,375,376,377,378,379,380,381,382,383,384,385],"tree_info":[0,0,0,0,0,0,0,0,0,0,0,0,0,0,0,0,0,0,0,0,0,0,0,0,0,0,0,0,0,0,0,0,0,0,0,0,0,0,0,0,0,0,0,0,0,0,0,0,0,0,0,0,0,0,0,0,0,0,0,0,0,0,0,0,0,0,0,0,0,0,0,0,0,0,0,0,0,0,0,0,0,0,0,0,0,0,0,0,0,0,0,0,0,0,0,0,0,0,0,0,0,0,0,0,0,0,0,0,0,0,0,0,0,0,0,0,0,0,0,0,0,0,0,0,0,0,0,0,0,0,0,0,0,0,0,0,0,0,0,0,0,0,0,0,0,0,0,0,0,0,0,0,0,0,0,0,0,0,0,0,0,0,0,0,0,0,0,0,0,0,0,0,0,0,0,0,0,0,0,0,0,0,0,0,0,0,0,0,0,0,0,0,0,0,0,0,0,0,0,0,0,0,0,0,0,0,0,0,0,0,0,0,0,0,0,0,0,0,0,0,0,0,0,0,0,0,0,0,0,0,0,0,0,0,0,0,0,0,0,0,0,0,0,0,0,0,0,0,0,0,0,0,0,0,0,0,0,0,0,0,0,0,0,0,0,0,0,0,0,0,0,0,0,0,0,0,0,0,0,0,0,0,0,0,0,0,0,0,0,0,0,0,0,0,0,0,0,0,0,0,0,0,0,0,0,0,0,0,0,0,0,0,0,0,0,0,0,0,0,0,0,0,0,0,0,0,0,0,0,0,0,0,0,0,0,0,0,0,0,0,0,0,0,0,0,0,0,0,0,0,0,0,0,0,0,0,0,0,0,0,0,0,0,0,0,0,0,0,0,0,0,0,0,0,0,0,0,0,0,0,0,0,0,0,0],"trees":[{"base_weights":[-5.9086712E-8,-1.2998438E-1,3.0633729E0,-3.4493554E-2,-3.2676337E-3,2.859151E-1,-3.8182612E-3],"categories":[],"categories_nodes":[],"categories_segments":[],"categories_sizes":[],"default_left":[0,0,0,0,0,0,0],"id":0,"left_children":[1,3,5,-1,-1,-1,-1],"loss_changes":[3.345596E3,1.7300613E2,7.058157E3,0E0,0E0,0E0,0E0],"parents":[2147483647,0,0,1,1,2,2],"right_children":[2,4,6,-1,-1,-1,-1],"split_conditions":[1E0,1E0,2E0,-3.4493554E-2,-3.2676337E-3,2.859151E-1,-3.8182612E-3],"split_indices":[3,1,3,0,0,0,0],"split_type":[0,0,0,0,0,0,0],"sum_hessian":[8.4E3,8.059E3,3.41E2,1.62E2,7.897E3,1.12E2,2.29E2],"tree_param":{"num_deleted":"0","num_feature":"9","num_nodes":"7","size_leaf_vector":"1"}},{"base_weights":[2.904698E-5,-1.2608951E-1,2.9722967E0,-3.3465095E-2,-3.169617E-3,2.7741358E-1,-3.704211E-3],"categories":[],"categories_nodes":[],"categories_segments":[],"categories_sizes":[],"default_left":[0,0,0,0,0,0,0],"id":1,"left_children":[1,3,5,-1,-1,-1,-1],"loss_changes":[3.1495579E3,1.6284956E2,6.6446323E3,0E0,0E0,0E0,0E0],"parents":[2147483647,0,0,1,1,2,2],"right_children":[2,4,6,-1,-1,-1,-1],"split_conditions":[1E0,1E0,2E0,-3.3465095E-2,-3.169617E-3,2.7741358E-1,-3.704211E-3],"split_indices":[3,1,3,0,0,0,0],"split_type":[0,0,0,0,0,0,0],"sum_hessian":[8.4E3,8.059E3,3.41E2,1.62E2,7.897E3,1.12E2,2.29E2],"tree_param":{"num_deleted":"0","num_feature":"9","num_nodes":"7","size_leaf_vector":"1"}},{"base_weights":[5.6423738E-5,-1.2231134E-1,2.883928E0,-3.24673E-2,-3.0745391E-3,2.691648E-1,-3.5935685E-3],"categories":[],"categories_nodes":[],"categories_segments":[],"categories_sizes":[],"default_left":[0,0,0,0,0,0,0],"id":2,"left_children":[1,3,5,-1,-1,-1,-1],"loss_changes":[2.965006E3,1.5328926E2,6.255333E3,0E0,0E0,0E0,0E0],"parents":[2147483647,0,0,1,1,2,2],"right_children":[2,4,6,-1,-1,-1,-1],"split_conditions":[1E0,1E0,2E0,-3.24673E-2,-3.0745391E-3,2.691648E-1,-3.5935685E-3],"split_indices":[3,1,3,0,0,0,0],"split_type":[0,0,0,0,0,0,0],"sum_hessian":[8.4E3,8.059E3,3.41E2,1.62E2,7.897E3,1.12E2,2.29E2],"tree_param":{"num_deleted":"0","num_feature":"9","num_nodes":"7","size_leaf_vector":"1"}},{"base_weights":[8.21081E-5,-1.1864642E-1,2.798187E0,-3.149926E-2,-2.9823151E-3,2.6116133E-1,-3.4862303E-3],"categories":[],"categories_nodes":[],"categories_segments":[],"categories_sizes":[],"default_left":[0,0,0,0,0,0,0],"id":3,"left_children":[1,3,5,-1,-1,-1,-1],"loss_changes":[2.791269E3,1.4429025E2,5.8888447E3,0E0,0E0,0E0,0E0],"parents":[2147483647,0,0,1,1,2,2],"right_children":[2,4,6,-1,-1,-1,-1],"split_conditions":[1E0,1E0,2E0,-3.149926E-2,-2.9823151E-3,2.6116133E-1,-3.4862303E-3],"split_indices":[3,1,3,0,0,0,0],"split_type":[0,0,0,0,0,0,0],"sum_hessian":[8.4E3,8.059E3,3.41E2,1.62E2,7.897E3,1.12E2,2.29E2],"tree_param":{"num_deleted":"0","num_feature":"9","num_nodes":"7","size_leaf_vector":"1"}},{"base_weights":[1.0615458E-4,-1.1509136E-1,2.7149947E0,-3.0560076E-2,-2.8928586E-3,2.5339583E-1,-3.3820968E-3],"categories":[],"categories_nodes":[],"categories_segments":[],"categories_sizes":[],"default_left":[0,0,0,0,0,0,0],"id":4,"left_children":[1,3,5,-1,-1,-1,-1],"loss_changes":[2.627712E3,1.3581946E2,5.543826E3,0E0,0E0,0E0,0E0],"parents":[2147483647,0,0,1,1,2,2],"right_children":[2,4,6,-1,-1,-1,-1],"split_conditions":[1E0,1E0,2E0,-3.0560076E-2,-2.8928586E-3,2.5339583E-1,-3.3820968E-3],"split_indices":[3,1,3,0,0,0,0],"split_type":[0,0,0,0,0,0,0],"sum_hessian":[8.4E3,8.059E3,3.41E2,1.62E2,7.897E3,1.12E2,2.29E2],"tree_param":{"num_deleted":"0","num_feature":"9","num_nodes":"7","size_leaf_vector":"1"}},{"base_weights":[1.2873771E-4,-1.1164278E-1,2.6342757E0,-2.9648902E-2,-2.806084E-3,2.458612E-1,-3.2810753E-3],"categories":[],"categories_nodes":[],"categories_segments":[],"categories_sizes":[],"default_left":[0,0,0,0,0,0,0],"id":5,"left_children":[1,3,5,-1,-1,-1,-1],"loss_changes":[2.4737383E3,1.2784601E2,5.219022E3,0E0,0E0,0E0,0E0],"parents":[2147483647,0,0,1,1,2,2],"right_children":[2,4,6,-1,-1,-1,-1],"split_conditions":[1E0,1E0,2E0,-2.9648902E-2,-2.806084E-3,2.458612E-1,-3.2810753E-3],"split_indices":[3,1,3,0,0,0,0],"split_type":[0,0,0,0,0,0,0],"sum_hessian":[8.4E3,8.059E3,3.41E2,1.62E2,7.897E3,1.12E2,2.29E2],"tree_param":{"num_deleted":"0","num_feature":"9","num_nodes":"7","size_leaf_vector":"1"}},{"base_weights":[1.4987492E-4,-1.08297534E-1,2.5559568E0,-2.8764892E-2,-2.7219125E-3,2.3855065E-1,-3.1830696E-3],"categories":[],"categories_nodes":[],"categories_segments":[],"categories_sizes":[],"default_left":[0,0,0,0,0,0,0],"id":6,"left_children":[1,3,5,-1,-1,-1,-1],"loss_changes":[2.3287874E3,1.20340645E2,4.913249E3,0E0,0E0,0E0,0E0],"parents":[2147483647,0,0,1,1,2,2],"right_children":[2,4,6,-1,-1,-1,-1],"split_conditions":[1E0,1E0,2E0,-2.8764892E-2,-2.7219125E-3,2.3855065E-1,-3.1830696E-3],"split_indices":[3,1,3,0,0,0,0],"split_type":[0,0,0,0,0,0,0],"sum_hessian":[8.4E3,8.059E3,3.41E2,1.62E2,7.897E3,1.12E2,2.29E2],"tree_param":{"num_deleted":"0","num_feature":"9","num_nodes":"7","size_leaf_vector":"1"}},{"base_weights":[1.6964141E-4,-1.0505252E-1,2.4799664E0,-2.790724E-2,-2.640266E-3,2.3145746E-1,-3.0879912E-3],"categories":[],"categories_nodes":[],"categories_segments":[],"categories_sizes":[],"default_left":[0,0,0,0,0,0,0],"id":7,"left_children":[1,3,5,-1,-1,-1,-1],"loss_changes":[2.1923298E3,1.1327588E2,4.6253896E3,0E0,0E0,0E0,0E0],"parents":[2147483647,0,0,1,1,2,2],"right_children":[2,4,6,-1,-1,-1,-1],"split_conditions":[1E0,1E0,2E0,-2.790724E-2,-2.640266E-3,2.3145746E-1,-3.0879912E-3],"split_indices":[3,1,3,0,0,0,0],"split_type":[0,0,0,0,0,0,0],"sum_hessian":[8.4E3,8.059E3,3.41E2,1.62E2,7.897E3,1.12E2,2.29E2],"tree_param":{"num_deleted":"0","num_feature":"9","num_nodes":"7","size_leaf_vector":"1"}},{"base_weights":[1.880858E-4,-1.0190476E-1,2.4062352E0,-2.7075158E-2,-2.5610686E-3,2.2457519E-1,-2.9957541E-3],"categories":[],"categories_nodes":[],"categories_segments":[],"categories_sizes":[],"default_left":[0,0,0,0,0,0,0],"id":8,"left_children":[1,3,5,-1,-1,-1,-1],"loss_changes":[2.0638684E3,1.06625854E2,4.3543955E3,0E0,0E0,0E0,0E0],"parents":[2147483647,0,0,1,1,2,2],"right_children":[2,4,6,-1,-1,-1,-1],"split_conditions":[1E0,1E0,2E0,-2.7075158E-2,-2.5610686E-3,2.2457519E-1,-2.9957541E-3],"split_indices":[3,1,3,0,0,0,0],"split_type":[0,0,0,0,0,0,0],"sum_hessian":[8.4E3,8.059E3,3.41E2,1.62E2,7.897E3,1.12E2,2.29E2],"tree_param":{"num_deleted":"0","num_feature":"9","num_nodes":"7","size_leaf_vector":"1"}},{"base_weights":[2.0530888E-4,-9.885126E-2,2.3346958E0,-2.6267886E-2,-2.4842455E-3,2.1789755E-1,-2.906273E-3],"categories":[],"categories_nodes":[],"categories_segments":[],"categories_sizes":[],"default_left":[0,0,0,0,0,0,0],"id":9,"left_children":[1,3,5,-1,-1,-1,-1],"loss_changes":[1.9429338E3,1.0036624E2,4.099279E3,0E0,0E0,0E0,0E0],"parents":[2147483647,0,0,1,1,2,2],"right_children":[2,4,6,-1,-1,-1,-1],"split_conditions":[1E0,1E0,2E0,-2.6267886E-2,-2.4842455E-3,2.1789755E-1,-2.906273E-3],"split_indices":[3,1,3,0,0,0,0],"split_type":[0,0,0,0,0,0,0],"sum_hessian":[8.4E3,8.059E3,3.41E2,1.62E2,7.897E3,1.12E2,2.29E2],"tree_param":{"num_deleted":"0","num_feature":"9","num_nodes":"7","size_leaf_vector":"1"}},{"base_weights":[2.2127491E-4,-9.588934E-2,2.2652836E0,-2.5484685E-2,-2.4097287E-3,2.1141846E-1,-2.8194622E-3],"categories":[],"categories_nodes":[],"categories_segments":[],"categories_sizes":[],"default_left":[0,0,0,0,0,0,0],"id":10,"left_children":[1,3,5,-1,-1,-1,-1],"loss_changes":[1.8290859E3,9.44741E1,3.8591084E3,0E0,0E0,0E0,0E0],"parents":[2147483647,0,0,1,1,2,2],"right_children":[2,4,6,-1,-1,-1,-1],"split_conditions":[1E0,1E0,2E0,-2.5484685E-2,-2.4097287E-3,2.1141846E-1,-2.8194622E-3],"split_indices":[3,1,3,0,0,0,0],"split_type":[0,0,0,0,0,0,0],"sum_hessian":[8.4E3,8.059E3,3.41E2,1.62E2,7.897E3,1.12E2,2.29E2],"tree_param":{"num_deleted":"0","num_feature":"9","num_nodes":"7","size_leaf_vector":"1"}},{"base_weights":[2.3611792E-4,-9.301615E-2,2.197935E0,-2.4724836E-2,-2.337447E-3,2.0513204E-1,-2.7352474E-3],"categories":[],"categories_nodes":[],"categories_segments":[],"categories_sizes":[],"default_left":[0,0,0,0,0,0,0],"id":11,"left_children":[1,3,5,-1,-1,-1,-1],"loss_changes":[1.7219088E3,8.892787E1,3.6330093E3,0E0,0E0,0E0,0E0],"parents":[2147483647,0,0,1,1,2,2],"right_children":[2,4,6,-1,-1,-1,-1],"split_conditions":[1E0,1E0,2E0,-2.4724836E-2,-2.337447E-3,2.0513204E-1,-2.7352474E-3],"split_indices":[3,1,3,0,0,0,0],"split_type":[0,0,0,0,0,0,0],"sum_hessian":[8.4E3,8.059E3,3.41E2,1.62E2,7.897E3,1.12E2,2.29E2],"tree_param":{"num_deleted":"0","num_feature":"9","num_nodes":"7","size_leaf_vector":"1"}},{"base_weights":[2.4991433E-4,-9.022901E-2,2.1325889E0,-2.398764E-2,-2.2673323E-3,1.9903253E-1,-2.6535464E-3],"categories":[],"categories_nodes":[],"categories_segments":[],"categories_sizes":[],"default_left":[0,0,0,0,0,0,0],"id":12,"left_children":[1,3,5,-1,-1,-1,-1],"loss_changes":[1.621012E3,8.370723E1,3.420157E3,0E0,0E0,0E0,0E0],"parents":[2147483647,0,0,1,1,2,2],"right_children":[2,4,6,-1,-1,-1,-1],"split_conditions":[1E0,1E0,2E0,-2.398764E-2,-2.2673323E-3,1.9903253E-1,-2.6535464E-3],"split_indices":[3,1,3,0,0,0,0],"split_type":[0,0,0,0,0,0,0],"sum_hessian":[8.4E3,8.059E3,3.41E2,1.62E2,7.897E3,1.12E2,2.29E2],"tree_param":{"num_deleted":"0","num_feature":"9","num_nodes":"7","size_leaf_vector":"1"}},{"base_weights":[2.6269912E-4,-8.7525375E-2,2.0691855E0,-2.3272425E-2,-2.1993201E-3,1.9311441E-1,-2.5742848E-3],"categories":[],"categories_nodes":[],"categories_segments":[],"categories_sizes":[],"default_left":[0,0,0,0,0,0,0],"id":13,"left_children":[1,3,5,-1,-1,-1,-1],"loss_changes":[1.5260273E3,7.87931E1,3.2197764E3,0E0,0E0,0E0,0E0],"parents":[2147483647,0,0,1,1,2,2],"right_children":[2,4,6,-1,-1,-1,-1],"split_conditions":[1E0,1E0,2E0,-2.3272425E-2,-2.1993201E-3,1.9311441E-1,-2.5742848E-3],"split_indices":[3,1,3,0,0,0,0],"split_type":[0,0,0,0,0,0,0],"sum_hessian":[8.4E3,8.059E3,3.41E2,1.62E2,7.897E3,1.12E2,2.29E2],"tree_param":{"num_deleted":"0","num_feature":"9","num_nodes":"7","size_leaf_vector":"1"}},{"base_weights":[2.7444345E-4,-8.49028E-2,2.007667E0,-2.2578534E-2,-2.1333497E-3,1.8737225E-1,-2.4973906E-3],"categories":[],"categories_nodes":[],"categories_segments":[],"categories_sizes":[],"default_left":[0,0,0,0,0,0,0],"id":14,"left_children":[1,3,5,-1,-1,-1,-1],"loss_changes":[1.4366085E3,7.4167435E1,3.0311348E3,0E0,0E0,0E0,0E0],"parents":[2147483647,0,0,1,1,2,2],"right_children":[2,4,6,-1,-1,-1,-1],"split_conditions":[1E0,1E0,2E0,-2.2578534E-2,-2.1333497E-3,1.8737225E-1,-2.4973906E-3],"split_indices":[3,1,3,0,0,0,0],"split_type":[0,0,0,0,0,0,0],"sum_hessian":[8.4E3,8.059E3,3.41E2,1.62E2,7.897E3,1.12E2,2.29E2],"tree_param":{"num_deleted":"0","num_feature":"9","num_nodes":"7","size_leaf_vector":"1"}},{"base_weights":[2.852965E-4,-8.235876E-2,1.9479778E0,-2.1905335E-2,-2.0693566E-3,1.8180084E-1,-2.4227935E-3],"categories":[],"categories_nodes":[],"categories_segments":[],"categories_sizes":[],"default_left":[0,0,0,0,0,0,0],"id":15,"left_children":[1,3,5,-1,-1,-1,-1],"loss_changes":[1.3524291E3,6.9813324E1,2.853546E3,0E0,0E0,0E0,0E0],"parents":[2147483647,0,0,1,1,2,2],"right_children":[2,4,6,-1,-1,-1,-1],"split_conditions":[1E0,1E0,2E0,-2.1905335E-2,-2.0693566E-3,1.8180084E-1,-2.4227935E-3],"split_indices":[3,1,3,0,0,0,0],"split_type":[0,0,0,0,0,0,0],"sum_hessian":[8.4E3,8.059E3,3.41E2,1.62E2,7.897E3,1.12E2,2.29E2],"tree_param":{"num_deleted":"0","num_feature":"9","num_nodes":"7","size_leaf_vector":"1"}},{"base_weights":[2.952342E-4,-7.9890974E-2,1.8900629E0,-2.1252206E-2,-2.0072837E-3,1.7639507E-1,-2.350425E-3],"categories":[],"categories_nodes":[],"categories_segments":[],"categories_sizes":[],"default_left":[0,0,0,0,0,0,0],"id":16,"left_children":[1,3,5,-1,-1,-1,-1],"loss_changes":[1.2731824E3,6.571483E1,2.6863613E3,0E0,0E0,0E0,0E0],"parents":[2147483647,0,0,1,1,2,2],"right_children":[2,4,6,-1,-1,-1,-1],"split_conditions":[1E0,1E0,2E0,-2.1252206E-2,-2.0072837E-3,1.7639507E-1,-2.350425E-3],"split_indices":[3,1,3,0,0,0,0],"split_type":[0,0,0,0,0,0,0],"sum_hessian":[8.4E3,8.059E3,3.41E2,1.62E2,7.897E3,1.12E2,2.29E2],"tree_param":{"num_deleted":"0","num_feature":"9","num_nodes":"7","size_leaf_vector":"1"}},{"base_weights":[3.0429242E-4,-7.749717E-2,1.83387E0,-2.061855E-2,-1.9470741E-3,1.7115006E-1,-2.2802183E-3],"categories":[],"categories_nodes":[],"categories_segments":[],"categories_sizes":[],"default_left":[0,0,0,0,0,0,0],"id":17,"left_children":[1,3,5,-1,-1,-1,-1],"loss_changes":[1.1985792E3,6.185695E1,2.528972E3,0E0,0E0,0E0,0E0],"parents":[2147483647,0,0,1,1,2,2],"right_children":[2,4,6,-1,-1,-1,-1],"split_conditions":[1E0,1E0,2E0,-2.061855E-2,-1.9470741E-3,1.7115006E-1,-2.2802183E-3],"split_indices":[3,1,3,0,0,0,0],"split_type":[0,0,0,0,0,0,0],"sum_hessian":[8.4E3,8.059E3,3.41E2,1.62E2,7.897E3,1.12E2,2.29E2],"tree_param":{"num_deleted":"0","num_feature":"9","num_nodes":"7","size_leaf_vector":"1"}},{"base_weights":[3.1255023E-4,-7.5175084E-2,1.7793477E0,-3.958925E-3,1.7310343E-3,1.66061E-1,-2.2121088E-3],"categories":[],"categories_nodes":[],"categories_segments":[],"categories_sizes":[],"default_left":[0,0,0,0,0,0,0],"id":18,"left_children":[1,3,5,-1,-1,-1,-1],"loss_changes":[1.1283473E3,6.0827736E1,2.3808037E3,0E0,0E0,0E0,0E0],"parents":[2147483647,0,0,1,1,2,2],"right_children":[2,4,6,-1,-1,-1,-1],"split_conditions":[1E0,1E0,2E0,-3.958925E-3,1.7310343E-3,1.66061E-1,-2.2121088E-3],"split_indices":[3,6,3,0,0,0,0],"split_type":[0,0,0,0,0,0,0],"sum_hessian":[8.4E3,8.059E3,3.41E2,5.646E3,2.413E3,1.12E2,2.29E2],"tree_param":{"num_deleted":"0","num_feature":"9","num_nodes":"7","size_leaf_vector":"1"}},{"base_weights":[3.224233E-4,-7.29201E-2,1.7264464E0,-1.9942299E-2,-1.820902E-3,1.6112325E-1,-2.1460322E-3],"categories":[],"categories_nodes":[],"categories_segments":[],"categories_sizes":[],"default_left":[0,0,0,0,0,0,0],"id":19,"left_children":[1,3,5,-1,-1,-1,-1],"loss_changes":[1.062228E3,5.8266243E1,2.2413162E3,0E0,0E0,0E0,0E0],"parents":[2147483647,0,0,1,1,2,2],"right_children":[2,4,6,-1,-1,-1,-1],"split_conditions":[1E0,1E0,2E0,-1.9942299E-2,-1.820902E-3,1.6112325E-1,-2.1460322E-3],"split_indices":[3,1,3,0,0,0,0],"split_type":[0,0,0,0,0,0,0],"sum_hessian":[8.4E3,8.059E3,3.41E2,1.62E2,7.897E3,1.12E2,2.29E2],"tree_param":{"num_deleted":"0","num_feature":"9","num_nodes":"7","size_leaf_vector":"1"}},{"base_weights":[3.291009E-4,-7.073517E-2,1.6751179E0,-3.775163E-3,1.7458906E-3,1.5633233E-1,-2.081932E-3],"categories":[],"categories_nodes":[],"categories_segments":[],"categories_sizes":[],"default_left":[0,0,0,0,0,0,0],"id":20,"left_children":[1,3,5,-1,-1,-1,-1],"loss_changes":[9.999857E2,5.7270325E1,2.1100012E3,0E0,0E0,0E0,0E0],"parents":[2147483647,0,0,1,1,2,2],"right_children":[2,4,6,-1,-1,-1,-1],"split_conditions":[1E0,1E0,2E0,-3.775163E-3,1.7458906E-3,1.5633233E-1,-2.081932E-3],"split_indices":[3,6,3,0,0,0,0],"split_type":[0,0,0,0,0,0,0],"sum_hessian":[8.4E3,8.059E3,3.41E2,5.646E3,2.413E3,1.12E2,2.29E2],"tree_param":{"num_deleted":"0","num_feature":"9","num_nodes":"7","size_leaf_vector":"1"}},{"base_weights":[3.373051E-4,-6.861342E-2,1.6253153E0,-2.9900684E-3,4.7946144E-3,1.5168385E-1,-2.019744E-3],"categories":[],"categories_nodes":[],"categories_segments":[],"categories_sizes":[],"default_left":[0,0,0,0,0,0,0],"id":21,"left_children":[1,3,5,-1,-1,-1,-1],"loss_changes":[9.4138806E2,5.7194675E1,1.9863796E3,0E0,0E0,0E0,0E0],"parents":[2147483647,0,0,1,1,2,2],"right_children":[2,4,6,-1,-1,-1,-1],"split_conditions":[1E0,1E0,2E0,-2.9900684E-3,4.7946144E-3,1.5168385E-1,-2.019744E-3],"split_indices":[3,4,3,0,0,0,0],"split_type":[0,0,0,0,0,0,0],"sum_hessian":[8.4E3,8.059E3,3.41E2,7.095E3,9.64E2,1.12E2,2.29E2],"tree_param":{"num_deleted":"0","num_feature":"9","num_nodes":"7","size_leaf_vector":"1"}},{"base_weights":[3.4526692E-4,-6.655474E-2,1.5769935E0,-1.9235248E-2,-1.6406166E-3,1.4717361E-1,-1.9594145E-3],"categories":[],"categories_nodes":[],"categories_segments":[],"categories_sizes":[],"default_left":[0,0,0,0,0,0,0],"id":22,"left_children":[1,3,5,-1,-1,-1,-1],"loss_changes":[8.862237E2,5.4928604E1,1.8700007E3,0E0,0E0,0E0,0E0],"parents":[2147483647,0,0,1,1,2,2],"right_children":[2,4,6,-1,-1,-1,-1],"split_conditions":[1E0,1E0,2E0,-1.9235248E-2,-1.6406166E-3,1.4717361E-1,-1.9594145E-3],"split_indices":[3,1,3,0,0,0,0],"split_type":[0,0,0,0,0,0,0],"sum_hessian":[8.4E3,8.059E3,3.41E2,1.62E2,7.897E3,1.12E2,2.29E2],"tree_param":{"num_deleted":"0","num_feature":"9","num_nodes":"7","size_leaf_vector":"1"}},{"base_weights":[3.4965784E-4,-6.456074E-2,1.5301083E0,-3.5410197E-3,1.8166325E-3,1.4279748E-1,-1.9008867E-3],"categories":[],"categories_nodes":[],"categories_segments":[],"categories_sizes":[],"default_left":[0,0,0,0,0,0,0],"id":23,"left_children":[1,3,5,-1,-1,-1,-1],"loss_changes":[8.34295E2,5.393108E1,1.7604407E3,0E0,0E0,0E0,0E0],"parents":[2147483647,0,0,1,1,2,2],"right_children":[2,4,6,-1,-1,-1,-1],"split_conditions":[1E0,1E0,2E0,-3.5410197E-3,1.8166325E-3,1.4279748E-1,-1.9008867E-3],"split_indices":[3,6,3,0,0,0,0],"split_type":[0,0,0,0,0,0,0],"sum_hessian":[8.4E3,8.059E3,3.41E2,5.646E3,2.413E3,1.12E2,2.29E2],"tree_param":{"num_deleted":"0","num_feature":"9","num_nodes":"7","size_leaf_vector":"1"}},{"base_weights":[3.557176E-4,-6.262415E-2,1.4846171E0,-2.782888E-3,4.771869E-3,1.3855147E-1,-1.8441073E-3],"categories":[],"categories_nodes":[],"categories_segments":[],"categories_sizes":[],"default_left":[0,0,0,0,0,0,0],"id":24,"left_children":[1,3,5,-1,-1,-1,-1],"loss_changes":[7.8540656E2,5.3866524E1,1.6572996E3,0E0,0E0,0E0,0E0],"parents":[2147483647,0,0,1,1,2,2],"right_children":[2,4,6,-1,-1,-1,-1],"split_conditions":[1E0,1E0,2E0,-2.782888E-3,4.771869E-3,1.3855147E-1,-1.8441073E-3],"split_indices":[3,4,3,0,0,0,0],"split_type":[0,0,0,0,0,0,0],"sum_hessian":[8.4E3,8.059E3,3.41E2,7.095E3,9.64E2,1.12E2,2.29E2],"tree_param":{"num_deleted":"0","num_feature":"9","num_nodes":"7","size_leaf_vector":"1"}},{"base_weights":[3.6159885E-4,-6.074513E-2,1.4404782E0,-1.8559795E-2,-1.4766935E-3,1.344317E-1,-1.7890263E-3],"categories":[],"categories_nodes":[],"categories_segments":[],"categories_sizes":[],"default_left":[0,0,0,0,0,0,0],"id":25,"left_children":[1,3,5,-1,-1,-1,-1],"loss_changes":[7.393823E2,5.1781647E1,1.5602007E3,0E0,0E0,0E0,0E0],"parents":[2147483647,0,0,1,1,2,2],"right_children":[2,4,6,-1,-1,-1,-1],"split_conditions":[1E0,1E0,2E0,-1.8559795E-2,-1.4766935E-3,1.344317E-1,-1.7890263E-3],"split_indices":[3,1,3,0,0,0,0],"split_type":[0,0,0,0,0,0,0],"sum_hessian":[8.4E3,8.059E3,3.41E2,1.62E2,7.897E3,1.12E2,2.29E2],"tree_param":{"num_deleted":"0","num_feature":"9","num_nodes":"7","size_leaf_vector":"1"}},{"base_weights":[3.6410664E-4,-5.892531E-2,1.3976516E0,-3.3244938E-3,1.8745972E-3,1.3043444E-1,-1.7355905E-3],"categories":[],"categories_nodes":[],"categories_segments":[],"categories_sizes":[],"default_left":[0,0,0,0,0,0,0],"id":26,"left_children":[1,3,5,-1,-1,-1,-1],"loss_changes":[6.960578E2,5.078656E1,1.4687913E3,0E0,0E0,0E0,0E0],"parents":[2147483647,0,0,1,1,2,2],"right_children":[2,4,6,-1,-1,-1,-1],"split_conditions":[1E0,1E0,2E0,-3.3244938E-3,1.8745972E-3,1.3043444E-1,-1.7355905E-3],"split_indices":[3,6,3,0,0,0,0],"split_type":[0,0,0,0,0,0,0],"sum_hessian":[8.4E3,8.059E3,3.41E2,5.646E3,2.413E3,1.12E2,2.29E2],"tree_param":{"num_deleted":"0","num_feature":"9","num_nodes":"7","size_leaf_vector":"1"}},{"base_weights":[3.6834687E-4,-5.715771E-2,1.3560983E0,-2.5922046E-3,4.73943E-3,1.2655602E-1,-1.6837497E-3],"categories":[],"categories_nodes":[],"categories_segments":[],"categories_sizes":[],"default_left":[0,0,0,0,0,0,0],"id":27,"left_children":[1,3,5,-1,-1,-1,-1],"loss_changes":[6.552698E2,5.0732136E1,1.3827373E3,0E0,0E0,0E0,0E0],"parents":[2147483647,0,0,1,1,2,2],"right_children":[2,4,6,-1,-1,-1,-1],"split_conditions":[1E0,1E0,2E0,-2.5922046E-3,4.73943E-3,1.2655602E-1,-1.6837497E-3],"split_indices":[3,4,3,0,0,0,0],"split_type":[0,0,0,0,0,0,0],"sum_hessian":[8.4E3,8.059E3,3.41E2,7.095E3,9.64E2,1.12E2,2.29E2],"tree_param":{"num_deleted":"0","num_feature":"9","num_nodes":"7","size_leaf_vector":"1"}},{"base_weights":[3.7242088E-4,-5.544271E-2,1.3157805E0,-1.7914062E-2,-1.3276848E-3,1.22792944E-1,-1.633458E-3],"categories":[],"categories_nodes":[],"categories_segments":[],"categories_sizes":[],"default_left":[0,0,0,0,0,0,0],"id":28,"left_children":[1,3,5,-1,-1,-1,-1],"loss_changes":[6.168716E2,4.8814518E1,1.3017251E3,0E0,0E0,0E0,0E0],"parents":[2147483647,0,0,1,1,2,2],"right_children":[2,4,6,-1,-1,-1,-1],"split_conditions":[1E0,1E0,2E0,-1.7914062E-2,-1.3276848E-3,1.22792944E-1,-1.633458E-3],"split_indices":[3,1,3,0,0,0,0],"split_type":[0,0,0,0,0,0,0],"sum_hessian":[8.4E3,8.059E3,3.41E2,1.62E2,7.897E3,1.12E2,2.29E2],"tree_param":{"num_deleted":"0","num_feature":"9","num_nodes":"7","size_leaf_vector":"1"}},{"base_weights":[3.7333378E-4,-5.3781863E-2,1.2766614E0,-3.124132E-3,1.9210934E-3,1.1914177E-1,-1.584669E-3],"categories":[],"categories_nodes":[],"categories_segments":[],"categories_sizes":[],"default_left":[0,0,0,0,0,0,0],"id":29,"left_children":[1,3,5,-1,-1,-1,-1],"loss_changes":[5.8072595E2,4.7825394E1,1.2254592E3,0E0,0E0,0E0,0E0],"parents":[2147483647,0,0,1,1,2,2],"right_children":[2,4,6,-1,-1,-1,-1],"split_conditions":[1E0,1E0,2E0,-3.124132E-3,1.9210934E-3,1.1914177E-1,-1.584669E-3],"split_indices":[3,6,3,0,0,0,0],"split_type":[0,0,0,0,0,0,0],"sum_hessian":[8.4E3,8.059E3,3.41E2,5.646E3,2.413E3,1.12E2,2.29E2],"tree_param":{"num_deleted":"0","num_feature":"9","num_nodes":"7","size_leaf_vector":"1"}},{"base_weights":[3.759855E-4,-5.2168556E-2,1.2387054E0,-2.4166282E-3,4.6984837E-3,1.1559915E-1,-1.5373362E-3],"categories":[],"categories_nodes":[],"categories_segments":[],"categories_sizes":[],"default_left":[0,0,0,0,0,0,0],"id":30,"left_children":[1,3,5,-1,-1,-1,-1],"loss_changes":[5.4669635E2,4.7780228E1,1.1536617E3,0E0,0E0,0E0,0E0],"parents":[2147483647,0,0,1,1,2,2],"right_children":[2,4,6,-1,-1,-1,-1],"split_conditions":[1E0,1E0,2E0,-2.4166282E-3,4.6984837E-3,1.1559915E-1,-1.5373362E-3],"split_indices":[3,4,3,0,0,0,0],"split_type":[0,0,0,0,0,0,0],"sum_hessian":[8.4E3,8.059E3,3.41E2,7.095E3,9.64E2,1.12E2,2.29E2],"tree_param":{"num_deleted":"0","num_feature":"9","num_nodes":"7","size_leaf_vector":"1"}},{"base_weights":[3.7853638E-4,-5.0603237E-2,1.2018777E0,-1.7296307E-2,-1.1922721E-3,1.1216187E-1,-1.491417E-3],"categories":[],"categories_nodes":[],"categories_segments":[],"categories_sizes":[],"default_left":[0,0,0,0,0,0,0],"id":31,"left_children":[1,3,5,-1,-1,-1,-1],"loss_changes":[5.1466034E2,4.6017033E1,1.0860707E3,0E0,0E0,0E0,0E0],"parents":[2147483647,0,0,1,1,2,2],"right_children":[2,4,6,-1,-1,-1,-1],"split_conditions":[1E0,1E0,2E0,-1.7296307E-2,-1.1922721E-3,1.1216187E-1,-1.491417E-3],"split_indices":[3,1,3,0,0,0,0],"split_type":[0,0,0,0,0,0,0],"sum_hessian":[8.4E3,8.059E3,3.41E2,1.62E2,7.897E3,1.12E2,2.29E2],"tree_param":{"num_deleted":"0","num_feature":"9","num_nodes":"7","size_leaf_vector":"1"}},{"base_weights":[3.7821225E-4,-4.9087375E-2,1.1661451E0,-2.9386021E-3,1.9573157E-3,1.08826794E-1,-1.4468686E-3],"categories":[],"categories_nodes":[],"categories_segments":[],"categories_sizes":[],"default_left":[0,0,0,0,0,0,0],"id":32,"left_children":[1,3,5,-1,-1,-1,-1],"loss_changes":[4.8450378E2,4.503692E1,1.0224397E3,0E0,0E0,0E0,0E0],"parents":[2147483647,0,0,1,1,2,2],"right_children":[2,4,6,-1,-1,-1,-1],"split_conditions":[1E0,1E0,2E0,-2.9386021E-3,1.9573157E-3,1.08826794E-1,-1.4468686E-3],"split_indices":[3,6,3,0,0,0,0],"split_type":[0,0,0,0,0,0,0],"sum_hessian":[8.4E3,8.059E3,3.41E2,5.646E3,2.413E3,1.12E2,2.29E2],"tree_param":{"num_deleted":"0","num_feature":"9","num_nodes":"7","size_leaf_vector":"1"}},{"base_weights":[3.7955496E-4,-4.761485E-2,1.1314747E0,-2.25488E-3,4.650112E-3,1.0559089E-1,-1.4036521E-3],"categories":[],"categories_nodes":[],"categories_segments":[],"categories_sizes":[],"default_left":[0,0,0,0,0,0,0],"id":33,"left_children":[1,3,5,-1,-1,-1,-1],"loss_changes":[4.5611258E2,4.5000153E1,9.6253687E2,0E0,0E0,0E0,0E0],"parents":[2147483647,0,0,1,1,2,2],"right_children":[2,4,6,-1,-1,-1,-1],"split_conditions":[1E0,1E0,2E0,-2.25488E-3,4.650112E-3,1.0559089E-1,-1.4036521E-3],"split_indices":[3,4,3,0,0,0,0],"split_type":[0,0,0,0,0,0,0],"sum_hessian":[8.4E3,8.059E3,3.41E2,7.095E3,9.64E2,1.12E2,2.29E2],"tree_param":{"num_deleted":"0","num_feature":"9","num_nodes":"7","size_leaf_vector":"1"}},{"base_weights":[3.8082688E-4,-4.618614E-2,1.0978352E0,-1.670491E-2,-1.0692464E-3,1.024512E-1,-1.3617246E-3],"categories":[],"categories_nodes":[],"categories_segments":[],"categories_sizes":[],"default_left":[0,0,0,0,0,0,0],"id":34,"left_children":[1,3,5,-1,-1,-1,-1],"loss_changes":[4.293848E2,4.337951E1,9.0614343E2,0E0,0E0,0E0,0E0],"parents":[2147483647,0,0,1,1,2,2],"right_children":[2,4,6,-1,-1,-1,-1],"split_conditions":[1E0,1E0,2E0,-1.670491E-2,-1.0692464E-3,1.024512E-1,-1.3617246E-3],"split_indices":[3,1,3,0,0,0,0],"split_type":[0,0,0,0,0,0,0],"sum_hessian":[8.4E3,8.059E3,3.41E2,1.62E2,7.897E3,1.12E2,2.29E2],"tree_param":{"num_deleted":"0","num_feature":"9","num_nodes":"7","size_leaf_vector":"1"}},{"base_weights":[3.7926307E-4,-4.480282E-2,1.0651957E0,-2.0160838E-3,5.8252043E-3,9.940485E-2,-1.3210502E-3],"categories":[],"categories_nodes":[],"categories_segments":[],"categories_sizes":[],"default_left":[0,0,0,0,0,0,0],"id":35,"left_children":[1,3,5,-1,-1,-1,-1],"loss_changes":[4.04225E2,4.3158737E1,8.5305383E2,0E0,0E0,0E0,0E0],"parents":[2147483647,0,0,1,1,2,2],"right_children":[2,4,6,-1,-1,-1,-1],"split_conditions":[1E0,1E0,2E0,-2.0160838E-3,5.8252043E-3,9.940485E-2,-1.3210502E-3],"split_indices":[3,5,3,0,0,0,0],"split_type":[0,0,0,0,0,0,0],"sum_hessian":[8.4E3,8.059E3,3.41E2,7.369E3,6.9E2,1.12E2,2.29E2],"tree_param":{"num_deleted":"0","num_feature":"9","num_nodes":"7","size_leaf_vector":"1"}},{"base_weights":[3.800045E-4,-4.345827E-2,1.0335267E0,-2.106197E-3,4.598304E-3,9.64491E-2,-1.2815903E-3],"categories":[],"categories_nodes":[],"categories_segments":[],"categories_sizes":[],"default_left":[0,0,0,0,0,0,0],"id":36,"left_children":[1,3,5,-1,-1,-1,-1],"loss_changes":[3.805377E2,4.2425125E1,8.030748E2,0E0,0E0,0E0,0E0],"parents":[2147483647,0,0,1,1,2,2],"right_children":[2,4,6,-1,-1,-1,-1],"split_conditions":[1E0,1E0,2E0,-2.106197E-3,4.598304E-3,9.64491E-2,-1.2815903E-3],"split_indices":[3,4,3,0,0,0,0],"split_type":[0,0,0,0,0,0,0],"sum_hessian":[8.4E3,8.059E3,3.41E2,7.095E3,9.64E2,1.12E2,2.29E2],"tree_param":{"num_deleted":"0","num_feature":"9","num_nodes":"7","size_leaf_vector":"1"}},{"base_weights":[3.8023142E-4,-4.2154215E-2,1.0027992E0,-2.6873096E-3,2.0639389E-3,9.358124E-2,-1.2433089E-3],"categories":[],"categories_nodes":[],"categories_segments":[],"categories_sizes":[],"default_left":[0,0,0,0,0,0,0],"id":37,"left_children":[1,3,5,-1,-1,-1,-1],"loss_changes":[3.5823853E2,4.241514E1,7.560241E2,0E0,0E0,0E0,0E0],"parents":[2147483647,0,0,1,1,2,2],"right_children":[2,4,6,-1,-1,-1,-1],"split_conditions":[1E0,1E0,2E0,-2.6873096E-3,2.0639389E-3,9.358124E-2,-1.2433089E-3],"split_indices":[3,6,3,0,0,0,0],"split_type":[0,0,0,0,0,0,0],"sum_hessian":[8.4E3,8.059E3,3.41E2,5.646E3,2.413E3,1.12E2,2.29E2],"tree_param":{"num_deleted":"0","num_feature":"9","num_nodes":"7","size_leaf_vector":"1"}},{"base_weights":[3.7974556E-4,-4.0889665E-2,9.729852E-1,-1.6106617E-2,-9.1944064E-4,9.0798646E-2,-1.2061705E-3],"categories":[],"categories_nodes":[],"categories_segments":[],"categories_sizes":[],"default_left":[0,0,0,0,0,0,0],"id":38,"left_children":[1,3,5,-1,-1,-1,-1],"loss_changes":[3.372463E2,4.0926968E1,7.1172986E2,0E0,0E0,0E0,0E0],"parents":[2147483647,0,0,1,1,2,2],"right_children":[2,4,6,-1,-1,-1,-1],"split_conditions":[1E0,1E0,2E0,-1.6106617E-2,-9.1944064E-4,9.0798646E-2,-1.2061705E-3],"split_indices":[3,1,3,0,0,0,0],"split_type":[0,0,0,0,0,0,0],"sum_hessian":[8.4E3,8.059E3,3.41E2,1.62E2,7.897E3,1.12E2,2.29E2],"tree_param":{"num_deleted":"0","num_feature":"9","num_nodes":"7","size_leaf_vector":"1"}},{"base_weights":[3.770074E-4,-3.9665066E-2,9.440575E-1,-1.84244E-3,5.7710125E-3,8.8098794E-2,-1.170143E-3],"categories":[],"categories_nodes":[],"categories_segments":[],"categories_sizes":[],"default_left":[0,0,0,0,0,0,0],"id":39,"left_children":[1,3,5,-1,-1,-1,-1],"loss_changes":[3.174854E2,4.068747E1,6.7003076E2,0E0,0E0,0E0,0E0],"parents":[2147483647,0,0,1,1,2,2],"right_children":[2,4,6,-1,-1,-1,-1],"split_conditions":[1E0,1E0,2E0,-1.84244E-3,5.7710125E-3,8.8098794E-2,-1.170143E-3],"split_indices":[3,5,3,0,0,0,0],"split_type":[0,0,0,0,0,0,0],"sum_hessian":[8.4E3,8.059E3,3.41E2,7.369E3,6.9E2,1.12E2,2.29E2],"tree_param":{"num_deleted":"0","num_feature":"9","num_nodes":"7","size_leaf_vector":"1"}},{"base_weights":[3.7655773E-4,-3.847458E-2,9.1598994E-1,-1.9334706E-3,4.576948E-3,8.547921E-2,-1.135191E-3],"categories":[],"categories_nodes":[],"categories_segments":[],"categories_sizes":[],"default_left":[0,0,0,0,0,0,0],"id":40,"left_children":[1,3,5,-1,-1,-1,-1],"loss_changes":[2.988808E2,4.0004726E1,6.3077466E2,0E0,0E0,0E0,0E0],"parents":[2147483647,0,0,1,1,2,2],"right_children":[2,4,6,-1,-1,-1,-1],"split_conditions":[1E0,1E0,2E0,-1.9334706E-3,4.576948E-3,8.547921E-2,-1.135191E-3],"split_indices":[3,4,3,0,0,0,0],"split_type":[0,0,0,0,0,0,0],"sum_hessian":[8.4E3,8.059E3,3.41E2,7.095E3,9.64E2,1.12E2,2.29E2],"tree_param":{"num_deleted":"0","num_feature":"9","num_nodes":"7","size_leaf_vector":"1"}},{"base_weights":[3.7560632E-4,-3.732002E-2,8.887569E-1,-2.5001327E-3,2.1103015E-3,8.293752E-2,-1.1012821E-3],"categories":[],"categories_nodes":[],"categories_segments":[],"categories_sizes":[],"default_left":[0,0,0,0,0,0,0],"id":41,"left_children":[1,3,5,-1,-1,-1,-1],"loss_changes":[2.813666E2,3.9938538E1,5.9381854E2,0E0,0E0,0E0,0E0],"parents":[2147483647,0,0,1,1,2,2],"right_children":[2,4,6,-1,-1,-1,-1],"split_conditions":[1E0,1E0,2E0,-2.5001327E-3,2.1103015E-3,8.293752E-2,-1.1012821E-3],"split_indices":[3,6,3,0,0,0,0],"split_type":[0,0,0,0,0,0,0],"sum_hessian":[8.4E3,8.059E3,3.41E2,5.646E3,2.413E3,1.12E2,2.29E2],"tree_param":{"num_deleted":"0","num_feature":"9","num_nodes":"7","size_leaf_vector":"1"}},{"base_weights":[3.7408117E-4,-3.6200423E-2,8.6233354E-1,-1.5539058E-2,-7.8759127E-4,8.0471426E-2,-1.0683881E-3],"categories":[],"categories_nodes":[],"categories_segments":[],"categories_sizes":[],"default_left":[0,0,0,0,0,0,0],"id":42,"left_children":[1,3,5,-1,-1,-1,-1],"loss_changes":[2.6487894E2,3.86126E1,5.590279E2,0E0,0E0,0E0,0E0],"parents":[2147483647,0,0,1,1,2,2],"right_children":[2,4,6,-1,-1,-1,-1],"split_conditions":[1E0,1E0,2E0,-1.5539058E-2,-7.8759127E-4,8.0471426E-2,-1.0683881E-3],"split_indices":[3,1,3,0,0,0,0],"split_type":[0,0,0,0,0,0,0],"sum_hessian":[8.4E3,8.059E3,3.41E2,1.62E2,7.897E3,1.12E2,2.29E2],"tree_param":{"num_deleted":"0","num_feature":"9","num_nodes":"7","size_leaf_vector":"1"}},{"base_weights":[3.7039415E-4,-3.511641E-2,8.366958E-1,-1.6870357E-3,5.705217E-3,7.807866E-2,-1.0364768E-3],"categories":[],"categories_nodes":[],"categories_segments":[],"categories_sizes":[],"default_left":[0,0,0,0,0,0,0],"id":43,"left_children":[1,3,5,-1,-1,-1,-1],"loss_changes":[2.4935861E2,3.83578E1,5.262755E2,0E0,0E0,0E0,0E0],"parents":[2147483647,0,0,1,1,2,2],"right_children":[2,4,6,-1,-1,-1,-1],"split_conditions":[1E0,1E0,2E0,-1.6870357E-3,5.705217E-3,7.807866E-2,-1.0364768E-3],"split_indices":[3,5,3,0,0,0,0],"split_type":[0,0,0,0,0,0,0],"sum_hessian":[8.4E3,8.059E3,3.41E2,7.369E3,6.9E2,1.12E2,2.29E2],"tree_param":{"num_deleted":"0","num_feature":"9","num_nodes":"7","size_leaf_vector":"1"}},{"base_weights":[3.6894844E-4,-3.406241E-2,8.118203E-1,-1.778562E-3,4.5434036E-3,7.575704E-2,-1.0055163E-3],"categories":[],"categories_nodes":[],"categories_segments":[],"categories_sizes":[],"default_left":[0,0,0,0,0,0,0],"id":44,"left_children":[1,3,5,-1,-1,-1,-1],"loss_changes":[2.3474632E2,3.7722492E1,4.9544208E2,0E0,0E0,0E0,0E0],"parents":[2147483647,0,0,1,1,2,2],"right_children":[2,4,6,-1,-1,-1,-1],"split_conditions":[1E0,1E0,2E0,-1.778562E-3,4.5434036E-3,7.575704E-2,-1.0055163E-3],"split_indices":[3,4,3,0,0,0,0],"split_type":[0,0,0,0,0,0,0],"sum_hessian":[8.4E3,8.059E3,3.41E2,7.095E3,9.64E2,1.12E2,2.29E2],"tree_param":{"num_deleted":"0","num_feature":"9","num_nodes":"7","size_leaf_vector":"1"}},{"base_weights":[3.6713897E-4,-3.3040162E-2,7.876843E-1,-2.3308354E-3,2.1429649E-3,7.350444E-2,-9.754815E-4],"categories":[],"categories_nodes":[],"categories_segments":[],"categories_sizes":[],"default_left":[0,0,0,0,0,0,0],"id":45,"left_children":[1,3,5,-1,-1,-1,-1],"loss_changes":[2.2099033E2,3.7606617E1,4.6641492E2,0E0,0E0,0E0,0E0],"parents":[2147483647,0,0,1,1,2,2],"right_children":[2,4,6,-1,-1,-1,-1],"split_conditions":[1E0,1E0,2E0,-2.3308354E-3,2.1429649E-3,7.350444E-2,-9.754815E-4],"split_indices":[3,6,3,0,0,0,0],"split_type":[0,0,0,0,0,0,0],"sum_hessian":[8.4E3,8.059E3,3.41E2,5.646E3,2.413E3,1.12E2,2.29E2],"tree_param":{"num_deleted":"0","num_feature":"9","num_nodes":"7","size_leaf_vector":"1"}},{"base_weights":[3.6471587E-4,-3.2049E-2,7.642659E-1,-1.49997985E-2,-6.7162333E-4,7.131882E-2,-9.46344E-4],"categories":[],"categories_nodes":[],"categories_segments":[],"categories_sizes":[],"default_left":[0,0,0,0,0,0,0],"id":46,"left_children":[1,3,5,-1,-1,-1,-1],"loss_changes":[2.0804062E2,3.642863E1,4.3908844E2,0E0,0E0,0E0,0E0],"parents":[2147483647,0,0,1,1,2,2],"right_children":[2,4,6,-1,-1,-1,-1],"split_conditions":[1E0,1E0,2E0,-1.49997985E-2,-6.7162333E-4,7.131882E-2,-9.46344E-4],"split_indices":[3,1,3,0,0,0,0],"split_type":[0,0,0,0,0,0,0],"sum_hessian":[8.4E3,8.059E3,3.41E2,1.62E2,7.897E3,1.12E2,2.29E2],"tree_param":{"num_deleted":"0","num_feature":"9","num_nodes":"7","size_leaf_vector":"1"}},{"base_weights":[3.6029168E-4,-3.1089474E-2,7.4154377E-1,-1.5478334E-3,5.6296634E-3,6.919819E-2,-9.1807544E-4],"categories":[],"categories_nodes":[],"categories_segments":[],"categories_sizes":[],"default_left":[0,0,0,0,0,0,0],"id":47,"left_children":[1,3,5,-1,-1,-1,-1],"loss_changes":[1.9585077E2,3.616168E1,4.1336304E2,0E0,0E0,0E0,0E0],"parents":[2147483647,0,0,1,1,2,2],"right_children":[2,4,6,-1,-1,-1,-1],"split_conditions":[1E0,1E0,2E0,-1.5478334E-3,5.6296634E-3,6.919819E-2,-9.1807544E-4],"split_indices":[3,5,3,0,0,0,0],"split_type":[0,0,0,0,0,0,0],"sum_hessian":[8.4E3,8.059E3,3.41E2,7.369E3,6.9E2,1.12E2,2.29E2],"tree_param":{"num_deleted":"0","num_feature":"9","num_nodes":"7","size_leaf_vector":"1"}},{"base_weights":[3.5807287E-4,-3.0156301E-2,7.1949697E-1,-1.6394868E-3,4.499487E-3,6.714061E-2,-8.906542E-4],"categories":[],"categories_nodes":[],"categories_segments":[],"categories_sizes":[],"default_left":[0,0,0,0,0,0,0],"id":48,"left_children":[1,3,5,-1,-1,-1,-1],"loss_changes":[1.8437384E2,3.5570503E1,3.8914468E2,0E0,0E0,0E0,0E0],"parents":[2147483647,0,0,1,1,2,2],"right_children":[2,4,6,-1,-1,-1,-1],"split_conditions":[1E0,1E0,2E0,-1.6394868E-3,4.499487E-3,6.714061E-2,-8.906542E-4],"split_indices":[3,4,3,0,0,0,0],"split_type":[0,0,0,0,0,0,0],"sum_hessian":[8.4E3,8.059E3,3.41E2,7.095E3,9.64E2,1.12E2,2.29E2],"tree_param":{"num_deleted":"0","num_feature":"9","num_nodes":"7","size_leaf_vector":"1"}},{"base_weights":[3.555609E-4,-2.9251253E-2,6.9810575E-1,-2.17748E-3,2.1637434E-3,6.514422E-2,-8.6405204E-4],"categories":[],"categories_nodes":[],"categories_segments":[],"categories_sizes":[],"default_left":[0,0,0,0,0,0,0],"id":49,"left_children":[1,3,5,-1,-1,-1,-1],"loss_changes":[1.7356961E2,3.5410934E1,3.6634534E2,0E0,0E0,0E0,0E0],"parents":[2147483647,0,0,1,1,2,2],"right_children":[2,4,6,-1,-1,-1,-1],"split_conditions":[1E0,1E0,2E0,-2.17748E-3,2.1637434E-3,6.514422E-2,-8.6405204E-4],"split_indices":[3,6,3,0,0,0,0],"split_type":[0,0,0,0,0,0,0],"sum_hessian":[8.4E3,8.059E3,3.41E2,5.646E3,2.413E3,1.12E2,2.29E2],"tree_param":{"num_deleted":"0","num_feature":"9","num_nodes":"7","size_leaf_vector":"1"}},{"base_weights":[3.5252995E-4,-2.8373726E-2,6.773504E-1,-1.448665E-2,-5.69694E-4,6.320718E-2,-8.3824387E-4],"categories":[],"categories_nodes":[],"categories_segments":[],"categories_sizes":[],"default_left":[0,0,0,0,0,0,0],"id":50,"left_children":[1,3,5,-1,-1,-1,-1],"loss_changes":[1.6339862E2,3.4367798E1,3.448817E2,0E0,0E0,0E0,0E0],"parents":[2147483647,0,0,1,1,2,2],"right_children":[2,4,6,-1,-1,-1,-1],"split_conditions":[1E0,1E0,2E0,-1.448665E-2,-5.69694E-4,6.320718E-2,-8.3824387E-4],"split_indices":[3,1,3,0,0,0,0],"split_type":[0,0,0,0,0,0,0],"sum_hessian":[8.4E3,8.059E3,3.41E2,1.62E2,7.897E3,1.12E2,2.29E2],"tree_param":{"num_deleted":"0","num_feature":"9","num_nodes":"7","size_leaf_vector":"1"}},{"base_weights":[3.475877E-4,-2.7524374E-2,6.5721214E-1,-1.4230208E-3,5.5459766E-3,6.132773E-2,-8.132048E-4],"categories":[],"categories_nodes":[],"categories_segments":[],"categories_sizes":[],"default_left":[0,0,0,0,0,0,0],"id":51,"left_children":[1,3,5,-1,-1,-1,-1],"loss_changes":[1.5382446E2,3.409142E1,3.246755E2,0E0,0E0,0E0,0E0],"parents":[2147483647,0,0,1,1,2,2],"right_children":[2,4,6,-1,-1,-1,-1],"split_conditions":[1E0,1E0,2E0,-1.4230208E-3,5.5459766E-3,6.132773E-2,-8.132048E-4],"split_indices":[3,5,3,0,0,0,0],"split_type":[0,0,0,0,0,0,0],"sum_hessian":[8.4E3,8.059E3,3.41E2,7.369E3,6.9E2,1.12E2,2.29E2],"tree_param":{"num_deleted":"0","num_feature":"9","num_nodes":"7","size_leaf_vector":"1"}},{"base_weights":[3.4483583E-4,-2.669815E-2,6.3767266E-1,-1.5144844E-3,4.446807E-3,5.9504174E-2,-7.889135E-4],"categories":[],"categories_nodes":[],"categories_segments":[],"categories_sizes":[],"default_left":[0,0,0,0,0,0,0],"id":52,"left_children":[1,3,5,-1,-1,-1,-1],"loss_changes":[1.4481035E2,3.3541386E1,3.0565326E2,0E0,0E0,0E0,0E0],"parents":[2147483647,0,0,1,1,2,2],"right_children":[2,4,6,-1,-1,-1,-1],"split_conditions":[1E0,1E0,2E0,-1.5144844E-3,4.446807E-3,5.9504174E-2,-7.889135E-4],"split_indices":[3,4,3,0,0,0,0],"split_type":[0,0,0,0,0,0,0],"sum_hessian":[8.4E3,8.059E3,3.41E2,7.095E3,9.64E2,1.12E2,2.29E2],"tree_param":{"num_deleted":"0","num_feature":"9","num_nodes":"7","size_leaf_vector":"1"}},{"base_weights":[3.417775E-4,-2.589689E-2,6.187141E-1,-2.0383354E-3,2.1742391E-3,5.7734832E-2,-7.653486E-4],"categories":[],"categories_nodes":[],"categories_segments":[],"categories_sizes":[],"default_left":[0,0,0,0,0,0,0],"id":53,"left_children":[1,3,5,-1,-1,-1,-1],"loss_changes":[1.3632448E2,3.334342E1,2.8774542E2,0E0,0E0,0E0,0E0],"parents":[2147483647,0,0,1,1,2,2],"right_children":[2,4,6,-1,-1,-1,-1],"split_conditions":[1E0,1E0,2E0,-2.0383354E-3,2.1742391E-3,5.7734832E-2,-7.653486E-4],"split_indices":[3,6,3,0,0,0,0],"split_type":[0,0,0,0,0,0,0],"sum_hessian":[8.4E3,8.059E3,3.41E2,5.646E3,2.413E3,1.12E2,2.29E2],"tree_param":{"num_deleted":"0","num_feature":"9","num_nodes":"7","size_leaf_vector":"1"}},{"base_weights":[3.3833587E-4,-2.5119957E-2,6.003193E-1,-1.3997645E-2,-4.8017083E-4,5.601813E-2,-7.424888E-4],"categories":[],"categories_nodes":[],"categories_segments":[],"categories_sizes":[],"default_left":[0,0,0,0,0,0,0],"id":54,"left_children":[1,3,5,-1,-1,-1,-1],"loss_changes":[1.2833607E2,3.2423203E1,2.7088702E2,0E0,0E0,0E0,0E0],"parents":[2147483647,0,0,1,1,2,2],"right_children":[2,4,6,-1,-1,-1,-1],"split_conditions":[1E0,1E0,2E0,-1.3997645E-2,-4.8017083E-4,5.601813E-2,-7.424888E-4],"split_indices":[3,1,3,0,0,0,0],"split_type":[0,0,0,0,0,0,0],"sum_hessian":[8.4E3,8.059E3,3.41E2,1.62E2,7.897E3,1.12E2,2.29E2],"tree_param":{"num_deleted":"0","num_feature":"9","num_nodes":"7","size_leaf_vector":"1"}},{"base_weights":[3.3304805E-4,-2.436815E-2,5.8247143E-1,-1.3109933E-3,5.455575E-3,5.4352466E-2,-7.203125E-4],"categories":[],"categories_nodes":[],"categories_segments":[],"categories_sizes":[],"default_left":[0,0,0,0,0,0,0],"id":55,"left_children":[1,3,5,-1,-1,-1,-1],"loss_changes":[1.208165E2,3.213979E1,2.550163E2,0E0,0E0,0E0,0E0],"parents":[2147483647,0,0,1,1,2,2],"right_children":[2,4,6,-1,-1,-1,-1],"split_conditions":[1E0,1E0,2E0,-1.3109933E-3,5.455575E-3,5.4352466E-2,-7.203125E-4],"split_indices":[3,5,3,0,0,0,0],"split_type":[0,0,0,0,0,0,0],"sum_hessian":[8.4E3,8.059E3,3.41E2,7.369E3,6.9E2,1.12E2,2.29E2],"tree_param":{"num_deleted":"0","num_feature":"9","num_nodes":"7","size_leaf_vector":"1"}},{"base_weights":[3.2988386E-4,-2.3636637E-2,5.6515396E-1,-1.4019961E-3,4.3867617E-3,5.2736312E-2,-6.9879857E-4],"categories":[],"categories_nodes":[],"categories_segments":[],"categories_sizes":[],"default_left":[0,0,0,0,0,0,0],"id":56,"left_children":[1,3,5,-1,-1,-1,-1],"loss_changes":[1.1373658E2,3.1628065E1,2.4007524E2,0E0,0E0,0E0,0E0],"parents":[2147483647,0,0,1,1,2,2],"right_children":[2,4,6,-1,-1,-1,-1],"split_conditions":[1E0,1E0,2E0,-1.4019961E-3,4.3867617E-3,5.2736312E-2,-6.9879857E-4],"split_indices":[3,4,3,0,0,0,0],"split_type":[0,0,0,0,0,0,0],"sum_hessian":[8.4E3,8.059E3,3.41E2,7.095E3,9.64E2,1.12E2,2.29E2],"tree_param":{"num_deleted":"0","num_feature":"9","num_nodes":"7","size_leaf_vector":"1"}},{"base_weights":[3.265551E-4,-2.292715E-2,5.483515E-1,-1.9118709E-3,2.1758701E-3,5.1168226E-2,-6.779256E-4],"categories":[],"categories_nodes":[],"categories_segments":[],"categories_sizes":[],"default_left":[0,0,0,0,0,0,0],"id":57,"left_children":[1,3,5,-1,-1,-1,-1],"loss_changes":[1.0707165E2,3.1396635E1,2.2600963E2,0E0,0E0,0E0,0E0],"parents":[2147483647,0,0,1,1,2,2],"right_children":[2,4,6,-1,-1,-1,-1],"split_conditions":[1E0,1E0,2E0,-1.9118709E-3,2.1758701E-3,5.1168226E-2,-6.779256E-4],"split_indices":[3,6,3,0,0,0,0],"split_type":[0,0,0,0,0,0,0],"sum_hessian":[8.4E3,8.059E3,3.41E2,5.646E3,2.413E3,1.12E2,2.29E2],"tree_param":{"num_deleted":"0","num_feature":"9","num_nodes":"7","size_leaf_vector":"1"}},{"base_weights":[3.2278663E-4,-2.2239314E-2,5.320485E-1,-1.3531011E-2,-4.0160943E-4,4.9646754E-2,-6.576757E-4],"categories":[],"categories_nodes":[],"categories_segments":[],"categories_sizes":[],"default_left":[0,0,0,0,0,0,0],"id":58,"left_children":[1,3,5,-1,-1,-1,-1],"loss_changes":[1.0079737E2,3.058835E1,2.1276802E2,0E0,0E0,0E0,0E0],"parents":[2147483647,0,0,1,1,2,2],"right_children":[2,4,6,-1,-1,-1,-1],"split_conditions":[1E0,1E0,2E0,-1.3531011E-2,-4.0160943E-4,4.9646754E-2,-6.576757E-4],"split_indices":[3,1,3,0,0,0,0],"split_type":[0,0,0,0,0,0,0],"sum_hessian":[8.4E3,8.059E3,3.41E2,1.62E2,7.897E3,1.12E2,2.29E2],"tree_param":{"num_deleted":"0","num_feature":"9","num_nodes":"7","size_leaf_vector":"1"}},{"base_weights":[3.172871E-4,-2.1573856E-2,5.1623046E-1,-1.2103275E-3,5.3597037E-3,4.8170544E-2,-6.3803117E-4],"categories":[],"categories_nodes":[],"categories_segments":[],"categories_sizes":[],"default_left":[0,0,0,0,0,0,0],"id":59,"left_children":[1,3,5,-1,-1,-1,-1],"loss_changes":[9.489143E1,3.0299976E1,2.0030243E2,0E0,0E0,0E0,0E0],"parents":[2147483647,0,0,1,1,2,2],"right_children":[2,4,6,-1,-1,-1,-1],"split_conditions":[1E0,1E0,2E0,-1.2103275E-3,5.3597037E-3,4.8170544E-2,-6.3803117E-4],"split_indices":[3,5,3,0,0,0,0],"split_type":[0,0,0,0,0,0,0],"sum_hessian":[8.4E3,8.059E3,3.41E2,7.369E3,6.9E2,1.12E2,2.29E2],"tree_param":{"num_deleted":"0","num_feature":"9","num_nodes":"7","size_leaf_vector":"1"}},{"base_weights":[3.1393397E-4,-2.0926118E-2,5.008826E-1,-1.3006346E-3,4.320589E-3,4.673823E-2,-6.1897415E-4],"categories":[],"categories_nodes":[],"categories_segments":[],"categories_sizes":[],"default_left":[0,0,0,0,0,0,0],"id":60,"left_children":[1,3,5,-1,-1,-1,-1],"loss_changes":[8.9330795E1,2.9823927E1,1.8856714E2,0E0,0E0,0E0,0E0],"parents":[2147483647,0,0,1,1,2,2],"right_children":[2,4,6,-1,-1,-1,-1],"split_conditions":[1E0,1E0,2E0,-1.3006346E-3,4.320589E-3,4.673823E-2,-6.1897415E-4],"split_indices":[3,4,3,0,0,0,0],"split_type":[0,0,0,0,0,0,0],"sum_hessian":[8.4E3,8.059E3,3.41E2,7.095E3,9.64E2,1.12E2,2.29E2],"tree_param":{"num_deleted":"0","num_feature":"9","num_nodes":"7","size_leaf_vector":"1"}},{"base_weights":[3.1040312E-4,-2.0297913E-2,4.8599088E-1,-1.7967287E-3,2.1698808E-3,4.534848E-2,-6.004869E-4],"categories":[],"categories_nodes":[],"categories_segments":[],"categories_sizes":[],"default_left":[0,0,0,0,0,0,0],"id":61,"left_children":[1,3,5,-1,-1,-1,-1],"loss_changes":[8.409595E1,2.9563541E1,1.7751923E2,0E0,0E0,0E0,0E0],"parents":[2147483647,0,0,1,1,2,2],"right_children":[2,4,6,-1,-1,-1,-1],"split_conditions":[1E0,1E0,2E0,-1.7967287E-3,2.1698808E-3,4.534848E-2,-6.004869E-4],"split_indices":[3,6,3,0,0,0,0],"split_type":[0,0,0,0,0,0,0],"sum_hessian":[8.4E3,8.059E3,3.41E2,5.646E3,2.413E3,1.12E2,2.29E2],"tree_param":{"num_deleted":"0","num_feature":"9","num_nodes":"7","size_leaf_vector":"1"}},{"base_weights":[3.0647035E-4,-1.9688925E-2,4.7154206E-1,-1.3085151E-2,-3.327301E-4,4.4000074E-2,-5.825514E-4],"categories":[],"categories_nodes":[],"categories_segments":[],"categories_sizes":[],"default_left":[0,0,0,0,0,0,0],"id":62,"left_children":[1,3,5,-1,-1,-1,-1],"loss_changes":[7.916806E1,2.8857103E1,1.6711876E2,0E0,0E0,0E0,0E0],"parents":[2147483647,0,0,1,1,2,2],"right_children":[2,4,6,-1,-1,-1,-1],"split_conditions":[1E0,1E0,2E0,-1.3085151E-2,-3.327301E-4,4.4000074E-2,-5.825514E-4],"split_indices":[3,1,3,0,0,0,0],"split_type":[0,0,0,0,0,0,0],"sum_hessian":[8.4E3,8.059E3,3.41E2,1.62E2,7.897E3,1.12E2,2.29E2],"tree_param":{"num_deleted":"0","num_feature":"9","num_nodes":"7","size_leaf_vector":"1"}},{"base_weights":[3.0083736E-4,-1.9099938E-2,4.575229E-1,-1.119762E-3,5.2594524E-3,4.2691763E-2,-5.6515017E-4],"categories":[],"categories_nodes":[],"categories_segments":[],"categories_sizes":[],"default_left":[0,0,0,0,0,0,0],"id":63,"left_children":[1,3,5,-1,-1,-1,-1],"loss_changes":[7.4529495E1,2.8565575E1,1.5732762E2,0E0,0E0,0E0,0E0],"parents":[2147483647,0,0,1,1,2,2],"right_children":[2,4,6,-1,-1,-1,-1],"split_conditions":[1E0,1E0,2E0,-1.119762E-3,5.2594524E-3,4.2691763E-2,-5.6515017E-4],"split_indices":[3,5,3,0,0,0,0],"split_type":[0,0,0,0,0,0,0],"sum_hessian":[8.4E3,8.059E3,3.41E2,7.369E3,6.9E2,1.12E2,2.29E2],"tree_param":{"num_deleted":"0","num_feature":"9","num_nodes":"7","size_leaf_vector":"1"}},{"base_weights":[2.9729394E-4,-1.8526448E-2,4.4392028E-1,-1.2091786E-3,4.2493637E-3,4.1422334E-2,-5.482687E-4],"categories":[],"categories_nodes":[],"categories_segments":[],"categories_sizes":[],"default_left":[0,0,0,0,0,0,0],"id":64,"left_children":[1,3,5,-1,-1,-1,-1],"loss_changes":[7.016199E1,2.8122736E1,1.4810997E2,0E0,0E0,0E0,0E0],"parents":[2147483647,0,0,1,1,2,2],"right_children":[2,4,6,-1,-1,-1,-1],"split_conditions":[1E0,1E0,2E0,-1.2091786E-3,4.2493637E-3,4.1422334E-2,-5.482687E-4],"split_indices":[3,4,3,0,0,0,0],"split_type":[0,0,0,0,0,0,0],"sum_hessian":[8.4E3,8.059E3,3.41E2,7.095E3,9.64E2,1.12E2,2.29E2],"tree_param":{"num_deleted":"0","num_feature":"9","num_nodes":"7","size_leaf_vector":"1"}},{"base_weights":[2.9357872E-4,-1.7970307E-2,4.307223E-1,-1.6917111E-3,2.1573622E-3,4.0190674E-2,-5.3189293E-4],"categories":[],"categories_nodes":[],"categories_segments":[],"categories_sizes":[],"default_left":[0,0,0,0,0,0,0],"id":65,"left_children":[1,3,5,-1,-1,-1,-1],"loss_changes":[6.605053E1,2.7837545E1,1.3943256E2,0E0,0E0,0E0,0E0],"parents":[2147483647,0,0,1,1,2,2],"right_children":[2,4,6,-1,-1,-1,-1],"split_conditions":[1E0,1E0,2E0,-1.6917111E-3,2.1573622E-3,4.0190674E-2,-5.3189293E-4],"split_indices":[3,6,3,0,0,0,0],"split_type":[0,0,0,0,0,0,0],"sum_hessian":[8.4E3,8.059E3,3.41E2,5.646E3,2.413E3,1.12E2,2.29E2],"tree_param":{"num_deleted":"0","num_feature":"9","num_nodes":"7","size_leaf_vector":"1"}},{"base_weights":[2.895485E-4,-1.743114E-2,4.179166E-1,-1.2658624E-2,-2.7240993E-4,3.8995624E-2,-5.16005E-4],"categories":[],"categories_nodes":[],"categories_segments":[],"categories_sizes":[],"default_left":[0,0,0,0,0,0,0],"id":66,"left_children":[1,3,5,-1,-1,-1,-1],"loss_changes":[6.2180046E1,2.722361E1,1.3126341E2,0E0,0E0,0E0,0E0],"parents":[2147483647,0,0,1,1,2,2],"right_children":[2,4,6,-1,-1,-1,-1],"split_conditions":[1E0,1E0,2E0,-1.2658624E-2,-2.7240993E-4,3.8995624E-2,-5.16005E-4],"split_indices":[3,1,3,0,0,0,0],"split_type":[0,0,0,0,0,0,0],"sum_hessian":[8.4E3,8.059E3,3.41E2,1.62E2,7.897E3,1.12E2,2.29E2],"tree_param":{"num_deleted":"0","num_feature":"9","num_nodes":"7","size_leaf_vector":"1"}},{"base_weights":[2.8388732E-4,-1.6909827E-2,4.0549162E-1,-1.0381858E-3,5.1557645E-3,3.7836105E-2,-5.0059054E-4],"categories":[],"categories_nodes":[],"categories_segments":[],"categories_sizes":[],"default_left":[0,0,0,0,0,0,0],"id":67,"left_children":[1,3,5,-1,-1,-1,-1],"loss_changes":[5.8536842E1,2.693053E1,1.2357289E2,0E0,0E0,0E0,0E0],"parents":[2147483647,0,0,1,1,2,2],"right_children":[2,4,6,-1,-1,-1,-1],"split_conditions":[1E0,1E0,2E0,-1.0381858E-3,5.1557645E-3,3.7836105E-2,-5.0059054E-4],"split_indices":[3,5,3,0,0,0,0],"split_type":[0,0,0,0,0,0,0],"sum_hessian":[8.4E3,8.059E3,3.41E2,7.369E3,6.9E2,1.12E2,2.29E2],"tree_param":{"num_deleted":"0","num_feature":"9","num_nodes":"7","size_leaf_vector":"1"}},{"base_weights":[2.8030854E-4,-1.6402015E-2,3.93436E-1,-1.1265434E-3,4.1740355E-3,3.6711067E-2,-4.856391E-4],"categories":[],"categories_nodes":[],"categories_segments":[],"categories_sizes":[],"default_left":[0,0,0,0,0,0,0],"id":68,"left_children":[1,3,5,-1,-1,-1,-1],"loss_changes":[5.510652E1,2.6518671E1,1.1633299E2,0E0,0E0,0E0,0E0],"parents":[2147483647,0,0,1,1,2,2],"right_children":[2,4,6,-1,-1,-1,-1],"split_conditions":[1E0,1E0,2E0,-1.1265434E-3,4.1740355E-3,3.6711067E-2,-4.856391E-4],"split_indices":[3,4,3,0,0,0,0],"split_type":[0,0,0,0,0,0,0],"sum_hessian":[8.4E3,8.059E3,3.41E2,7.095E3,9.64E2,1.12E2,2.29E2],"tree_param":{"num_deleted":"0","num_feature":"9","num_nodes":"7","size_leaf_vector":"1"}},{"base_weights":[2.7657094E-4,-1.5909586E-2,3.81739E-1,-1.5957427E-3,2.1392799E-3,3.5619494E-2,-4.7113263E-4],"categories":[],"categories_nodes":[],"categories_segments":[],"categories_sizes":[],"default_left":[0,0,0,0,0,0,0],"id":69,"left_children":[1,3,5,-1,-1,-1,-1],"loss_changes":[5.18773E1,2.6212347E1,1.0951729E2,0E0,0E0,0E0,0E0],"parents":[2147483647,0,0,1,1,2,2],"right_children":[2,4,6,-1,-1,-1,-1],"split_conditions":[1E0,1E0,2E0,-1.5957427E-3,2.1392799E-3,3.5619494E-2,-4.7113263E-4],"split_indices":[3,6,3,0,0,0,0],"split_type":[0,0,0,0,0,0,0],"sum_hessian":[8.4E3,8.059E3,3.41E2,5.646E3,2.413E3,1.12E2,2.29E2],"tree_param":{"num_deleted":"0","num_feature":"9","num_nodes":"7","size_leaf_vector":"1"}},{"base_weights":[2.7249975E-4,-5.4020274E-1,1.1567939E-2,-1.2250127E-2,-7.9067506E-2,-2.1964387E-4,1.3786401E-2],"categories":[],"categories_nodes":[],"categories_segments":[],"categories_sizes":[],"default_left":[0,0,0,0,0,0,0],"id":70,"left_children":[1,3,5,-1,-1,-1,-1],"loss_changes":[5.1293556E1,4.6448704E1,6.9646034E1,0E0,0E0,0E0,0E0],"parents":[2147483647,0,0,1,1,2,2],"right_children":[2,4,6,-1,-1,-1,-1],"split_conditions":[1E0,1E0,1E0,-1.2250127E-2,-7.9067506E-2,-2.1964387E-4,1.3786401E-2],"split_indices":[1,3,3,0,0,0,0],"split_type":[0,0,0,0,0,0,0],"sum_hessian":[8.4E3,1.71E2,8.229E3,1.62E2,9E0,7.897E3,3.32E2],"tree_param":{"num_deleted":"0","num_feature":"9","num_nodes":"7","size_leaf_vector":"1"}},{"base_weights":[2.5512523E-4,-5.2452755E-1,1.1222606E-2,-1.1884878E-2,-7.693269E-2,-2.1305362E-4,1.3374051E-2],"categories":[],"categories_nodes":[],"categories_segments":[],"categories_sizes":[],"default_left":[0,0,0,0,0,0,0],"id":71,"left_children":[1,3,5,-1,-1,-1,-1],"loss_changes":[4.835821E1,4.402244E1,6.554193E1,0E0,0E0,0E0,0E0],"parents":[2147483647,0,0,1,1,2,2],"right_children":[2,4,6,-1,-1,-1,-1],"split_conditions":[1E0,1E0,1E0,-1.1884878E-2,-7.693269E-2,-2.1305362E-4,1.3374051E-2],"split_indices":[1,3,3,0,0,0,0],"split_type":[0,0,0,0,0,0,0],"sum_hessian":[8.4E3,1.71E2,8.229E3,1.62E2,9E0,7.897E3,3.32E2],"tree_param":{"num_deleted":"0","num_feature":"9","num_nodes":"7","size_leaf_vector":"1"}},{"base_weights":[2.3843594E-4,-5.093081E-1,1.0887496E-2,-1.153052E-2,-7.48555E-2,-2.0666361E-4,1.297403E-2],"categories":[],"categories_nodes":[],"categories_segments":[],"categories_sizes":[],"default_left":[0,0,0,0,0,0,0],"id":72,"left_children":[1,3,5,-1,-1,-1,-1],"loss_changes":[4.5590984E1,4.1722755E1,6.167966E1,0E0,0E0,0E0,0E0],"parents":[2147483647,0,0,1,1,2,2],"right_children":[2,4,6,-1,-1,-1,-1],"split_conditions":[1E0,1E0,1E0,-1.153052E-2,-7.48555E-2,-2.0666361E-4,1.297403E-2],"split_indices":[1,3,3,0,0,0,0],"split_type":[0,0,0,0,0,0,0],"sum_hessian":[8.4E3,1.71E2,8.229E3,1.62E2,9E0,7.897E3,3.32E2],"tree_param":{"num_deleted":"0","num_feature":"9","num_nodes":"7","size_leaf_vector":"1"}},{"base_weights":[2.2256577E-4,-4.9453112E-1,1.056247E-2,-1.1186726E-2,-7.28344E-2,-2.0046314E-4,1.2585981E-2],"categories":[],"categories_nodes":[],"categories_segments":[],"categories_sizes":[],"default_left":[0,0,0,0,0,0,0],"id":73,"left_children":[1,3,5,-1,-1,-1,-1],"loss_changes":[4.2982265E1,3.9543056E1,5.8045025E1,0E0,0E0,0E0,0E0],"parents":[2147483647,0,0,1,1,2,2],"right_children":[2,4,6,-1,-1,-1,-1],"split_conditions":[1E0,1E0,1E0,-1.1186726E-2,-7.28344E-2,-2.0046314E-4,1.2585981E-2],"split_indices":[1,3,3,0,0,0,0],"split_type":[0,0,0,0,0,0,0],"sum_hessian":[8.4E3,1.71E2,8.229E3,1.62E2,9E0,7.897E3,3.32E2],"tree_param":{"num_deleted":"0","num_feature":"9","num_nodes":"7","size_leaf_vector":"1"}},{"base_weights":[2.074096E-4,-4.801837E-1,1.02471495E-2,-1.0853183E-2,-7.086788E-2,-1.944486E-4,1.2209538E-2],"categories":[],"categories_nodes":[],"categories_segments":[],"categories_sizes":[],"default_left":[0,0,0,0,0,0,0],"id":74,"left_children":[1,3,5,-1,-1,-1,-1],"loss_changes":[4.052296E1,3.7477077E1,5.462457E1,0E0,0E0,0E0,0E0],"parents":[2147483647,0,0,1,1,2,2],"right_children":[2,4,6,-1,-1,-1,-1],"split_conditions":[1E0,1E0,1E0,-1.0853183E-2,-7.086788E-2,-1.944486E-4,1.2209538E-2],"split_indices":[1,3,3,0,0,0,0],"split_type":[0,0,0,0,0,0,0],"sum_hessian":[8.4E3,1.71E2,8.229E3,1.62E2,9E0,7.897E3,3.32E2],"tree_param":{"num_deleted":"0","num_feature":"9","num_nodes":"7","size_leaf_vector":"1"}},{"base_weights":[1.9286796E-4,-2.0946633E-2,2.2677149E-1,-1.4112146E-3,5.038249E-3,-3.0384306E-3,2.8760884E-2],"categories":[],"categories_nodes":[],"categories_segments":[],"categories_sizes":[],"default_left":[0,0,0,0,0,0,0],"id":75,"left_children":[1,3,5,-1,-1,-1,-1],"loss_changes":[4.024352E1,3.7885902E1,1.7225577E2,0E0,0E0,0E0,0E0],"parents":[2147483647,0,0,1,1,2,2],"right_children":[2,4,6,-1,-1,-1,-1],"split_conditions":[1E0,1E0,1E0,-1.4112146E-3,5.038249E-3,-3.0384306E-3,2.8760884E-2],"split_indices":[5,4,6,0,0,0,0],"split_type":[0,0,0,0,0,0,0],"sum_hessian":[8.4E3,7.684E3,7.16E2,6.752E3,9.32E2,4.95E2,2.21E2],"tree_param":{"num_deleted":"0","num_feature":"9","num_nodes":"7","size_leaf_vector":"1"}},{"base_weights":[1.9056308E-4,-4.6594968E-1,9.932475E-3,-1.0521126E-2,-6.893569E-2,-1.8840111E-4,1.1832793E-2],"categories":[],"categories_nodes":[],"categories_segments":[],"categories_sizes":[],"default_left":[0,0,0,0,0,0,0],"id":76,"left_children":[1,3,5,-1,-1,-1,-1],"loss_changes":[3.815439E1,3.5506603E1,5.1305107E1,0E0,0E0,0E0,0E0],"parents":[2147483647,0,0,1,1,2,2],"right_children":[2,4,6,-1,-1,-1,-1],"split_conditions":[1E0,1E0,1E0,-1.0521126E-2,-6.893569E-2,-1.8840111E-4,1.1832793E-2],"split_indices":[1,3,3,0,0,0,0],"split_type":[0,0,0,0,0,0,0],"sum_hessian":[8.4E3,1.71E2,8.229E3,1.62E2,9E0,7.897E3,3.32E2],"tree_param":{"num_deleted":"0","num_feature":"9","num_nodes":"7","size_leaf_vector":"1"}},{"base_weights":[1.7672025E-4,-2.0333985E-2,2.2001576E-1,-1.3697101E-3,4.8892307E-3,-2.941276E-3,2.7889242E-2],"categories":[],"categories_nodes":[],"categories_segments":[],"categories_sizes":[],"default_left":[0,0,0,0,0,0,0],"id":77,"left_children":[1,3,5,-1,-1,-1,-1],"loss_changes":[3.7885033E1,3.5680603E1,1.6191971E2,0E0,0E0,0E0,0E0],"parents":[2147483647,0,0,1,1,2,2],"right_children":[2,4,6,-1,-1,-1,-1],"split_conditions":[1E0,1E0,1E0,-1.3697101E-3,4.8892307E-3,-2.941276E-3,2.7889242E-2],"split_indices":[5,4,6,0,0,0,0],"split_type":[0,0,0,0,0,0,0],"sum_hessian":[8.4E3,7.684E3,7.16E2,6.752E3,9.32E2,4.95E2,2.21E2],"tree_param":{"num_deleted":"0","num_feature":"9","num_nodes":"7","size_leaf_vector":"1"}},{"base_weights":[1.748042E-4,-4.5213878E-1,9.627752E-3,-1.0199226E-2,-6.7056224E-2,-1.825327E-4,1.1467674E-2],"categories":[],"categories_nodes":[],"categories_segments":[],"categories_sizes":[],"default_left":[0,0,0,0,0,0,0],"id":78,"left_children":[1,3,5,-1,-1,-1,-1],"loss_changes":[3.592448E1,3.3639606E1,4.818731E1,0E0,0E0,0E0,0E0],"parents":[2147483647,0,0,1,1,2,2],"right_children":[2,4,6,-1,-1,-1,-1],"split_conditions":[1E0,1E0,1E0,-1.0199226E-2,-6.7056224E-2,-1.825327E-4,1.1467674E-2],"split_indices":[1,3,3,0,0,0,0],"split_type":[0,0,0,0,0,0,0],"sum_hessian":[8.4E3,1.71E2,8.229E3,1.62E2,9E0,7.897E3,3.32E2],"tree_param":{"num_deleted":"0","num_feature":"9","num_nodes":"7","size_leaf_vector":"1"}},{"base_weights":[1.6168151E-4,-1.9738905E-2,2.1346132E-1,-1.3294152E-3,4.744627E-3,-2.847219E-3,2.7044024E-2],"categories":[],"categories_nodes":[],"categories_segments":[],"categories_sizes":[],"default_left":[0,0,0,0,0,0,0],"id":79,"left_children":[1,3,5,-1,-1,-1,-1],"loss_changes":[3.5664673E1,3.3603622E1,1.5220395E2,0E0,0E0,0E0,0E0],"parents":[2147483647,0,0,1,1,2,2],"right_children":[2,4,6,-1,-1,-1,-1],"split_conditions":[1E0,1E0,1E0,-1.3294152E-3,4.744627E-3,-2.847219E-3,2.7044024E-2],"split_indices":[5,4,6,0,0,0,0],"split_type":[0,0,0,0,0,0,0],"sum_hessian":[8.4E3,7.684E3,7.16E2,6.752E3,9.32E2,4.95E2,2.21E2],"tree_param":{"num_deleted":"0","num_feature":"9","num_nodes":"7","size_leaf_vector":"1"}},{"base_weights":[1.6011893E-4,-4.3873838E-1,9.332704E-3,-1.1659109E-2,-1.3509117E-1,-1.7683732E-4,1.1113831E-2],"categories":[],"categories_nodes":[],"categories_segments":[],"categories_sizes":[],"default_left":[0,0,0,0,0,0,0],"id":80,"left_children":[1,3,5,-1,-1,-1,-1],"loss_changes":[3.382513E1,3.3273823E1,4.525898E1,0E0,0E0,0E0,0E0],"parents":[2147483647,0,0,1,1,2,2],"right_children":[2,4,6,-1,-1,-1,-1],"split_conditions":[1E0,8.9E1,1E0,-1.1659109E-2,-1.3509117E-1,-1.7683732E-4,1.1113831E-2],"split_indices":[1,0,3,0,0,0,0],"split_type":[0,0,0,0,0,0,0],"sum_hessian":[8.4E3,1.71E2,8.229E3,1.7E2,1E0,7.897E3,3.32E2],"tree_param":{"num_deleted":"0","num_feature":"9","num_nodes":"7","size_leaf_vector":"1"}},{"base_weights":[1.3909698E-4,-1.9174436E-2,2.0714658E-1,-1.2907E-3,4.603892E-3,-2.754448E-3,2.6224906E-2],"categories":[],"categories_nodes":[],"categories_segments":[],"categories_sizes":[],"default_left":[0,0,0,0,0,0,0],"id":81,"left_children":[1,3,5,-1,-1,-1,-1],"loss_changes":[3.3591557E1,3.16474E1,1.4305896E2,0E0,0E0,0E0,0E0],"parents":[2147483647,0,0,1,1,2,2],"right_children":[2,4,6,-1,-1,-1,-1],"split_conditions":[1E0,1E0,1E0,-1.2907E-3,4.603892E-3,-2.754448E-3,2.6224906E-2],"split_indices":[5,4,6,0,0,0,0],"split_type":[0,0,0,0,0,0,0],"sum_hessian":[8.4E3,7.684E3,7.16E2,6.752E3,9.32E2,4.95E2,2.21E2],"tree_param":{"num_deleted":"0","num_feature":"9","num_nodes":"7","size_leaf_vector":"1"}},{"base_weights":[1.3809557E-4,-4.261525E-1,9.04719E-3,-1.1303252E-2,-1.3304545E-1,-1.7130465E-4,1.0770917E-2],"categories":[],"categories_nodes":[],"categories_segments":[],"categories_sizes":[],"default_left":[0,0,0,0,0,0,0],"id":82,"left_children":[1,3,5,-1,-1,-1,-1],"loss_changes":[3.1909704E1,3.23746E1,4.2508568E1,0E0,0E0,0E0,0E0],"parents":[2147483647,0,0,1,1,2,2],"right_children":[2,4,6,-1,-1,-1,-1],"split_conditions":[1E0,8.9E1,1E0,-1.1303252E-2,-1.3304545E-1,-1.7130465E-4,1.0770917E-2],"split_indices":[1,0,3,0,0,0,0],"split_type":[0,0,0,0,0,0,0],"sum_hessian":[8.4E3,1.71E2,8.229E3,1.7E2,1E0,7.897E3,3.32E2],"tree_param":{"num_deleted":"0","num_feature":"9","num_nodes":"7","size_leaf_vector":"1"}},{"base_weights":[1.1803262E-4,-4.0213097E-2,9.409607E-2,-1.32506415E-2,-9.6592546E-4,-6.51872E-5,2.463537E-2],"categories":[],"categories_nodes":[],"categories_segments":[],"categories_sizes":[],"default_left":[0,0,0,0,0,0,0],"id":83,"left_children":[1,3,5,-1,-1,-1,-1],"loss_changes":[3.1845596E1,1.8904728E1,1.7660052E2,0E0,0E0,0E0,0E0],"parents":[2147483647,0,0,1,1,2,2],"right_children":[2,4,6,-1,-1,-1,-1],"split_conditions":[1E0,1E0,1E0,-1.32506415E-2,-9.6592546E-4,-6.51872E-5,2.463537E-2],"split_indices":[6,1,4,0,0,0,0],"split_type":[0,0,0,0,0,0,0],"sum_hessian":[8.4E3,5.878E3,2.522E3,1.14E2,5.764E3,2.228E3,2.94E2],"tree_param":{"num_deleted":"0","num_feature":"9","num_nodes":"7","size_leaf_vector":"1"}},{"base_weights":[1.15749965E-4,-1.8643979E-2,2.0118743E-1,-1.2278287E-3,4.279912E-3,-2.6238747E-3,2.535578E-2],"categories":[],"categories_nodes":[],"categories_segments":[],"categories_sizes":[],"default_left":[0,0,0,0,0,0,0],"id":84,"left_children":[1,3,5,-1,-1,-1,-1],"loss_changes":[3.1692743E1,2.7629751E1,1.3335855E2,0E0,0E0,0E0,0E0],"parents":[2147483647,0,0,1,1,2,2],"right_children":[2,4,6,-1,-1,-1,-1],"split_conditions":[1E0,1E0,1E0,-1.2278287E-3,4.279912E-3,-2.6238747E-3,2.535578E-2],"split_indices":[5,4,6,0,0,0,0],"split_type":[0,0,0,0,0,0,0],"sum_hessian":[8.4E3,7.684E3,7.16E2,6.752E3,9.32E2,4.95E2,2.21E2],"tree_param":{"num_deleted":"0","num_feature":"9","num_nodes":"7","size_leaf_vector":"1"}},{"base_weights":[1.15357434E-4,-1.8084252E-2,1.9518353E-1,-1.1909986E-3,4.15165E-3,-2.5453162E-3,2.4598533E-2],"categories":[],"categories_nodes":[],"categories_segments":[],"categories_sizes":[],"default_left":[0,0,0,0,0,0,0],"id":85,"left_children":[1,3,5,-1,-1,-1,-1],"loss_changes":[2.982846E1,2.5998201E1,1.255102E2,0E0,0E0,0E0,0E0],"parents":[2147483647,0,0,1,1,2,2],"right_children":[2,4,6,-1,-1,-1,-1],"split_conditions":[1E0,1E0,1E0,-1.1909986E-3,4.15165E-3,-2.5453162E-3,2.4598533E-2],"split_indices":[5,4,6,0,0,0,0],"split_type":[0,0,0,0,0,0,0],"sum_hessian":[8.4E3,7.684E3,7.16E2,6.752E3,9.32E2,4.95E2,2.21E2],"tree_param":{"num_deleted":"0","num_feature":"9","num_nodes":"7","size_leaf_vector":"1"}},{"base_weights":[1.1489104E-4,-4.0587083E-1,8.599633E-3,-1.0717332E-2,-1.3081473E-1,-1.7088129E-4,1.0429039E-2],"categories":[],"categories_nodes":[],"categories_segments":[],"categories_sizes":[],"default_left":[0,0,0,0,0,0,0],"id":86,"left_children":[1,3,5,-1,-1,-1,-1],"loss_changes":[2.894228E1,3.151765E1,3.9890606E1,0E0,0E0,0E0,0E0],"parents":[2147483647,0,0,1,1,2,2],"right_children":[2,4,6,-1,-1,-1,-1],"split_conditions":[1E0,8.9E1,1E0,-1.0717332E-2,-1.3081473E-1,-1.7088129E-4,1.0429039E-2],"split_indices":[1,0,3,0,0,0,0],"split_type":[0,0,0,0,0,0,0],"sum_hessian":[8.4E3,1.71E2,8.229E3,1.7E2,1E0,7.897E3,3.32E2],"tree_param":{"num_deleted":"0","num_feature":"9","num_nodes":"7","size_leaf_vector":"1"}},{"base_weights":[9.576304E-5,-1.756699E-2,1.894098E-1,-1.1563331E-3,4.0285615E-3,-2.4621233E-3,2.3853235E-2],"categories":[],"categories_nodes":[],"categories_segments":[],"categories_sizes":[],"default_left":[0,0,0,0,0,0,0],"id":87,"left_children":[1,3,5,-1,-1,-1,-1],"loss_changes":[2.8094652E1,2.4485556E1,1.1796533E2,0E0,0E0,0E0,0E0],"parents":[2147483647,0,0,1,1,2,2],"right_children":[2,4,6,-1,-1,-1,-1],"split_conditions":[1E0,1E0,1E0,-1.1563331E-3,4.0285615E-3,-2.4621233E-3,2.3853235E-2],"split_indices":[5,4,6,0,0,0,0],"split_type":[0,0,0,0,0,0,0],"sum_hessian":[8.4E3,7.684E3,7.16E2,6.752E3,9.32E2,4.95E2,2.21E2],"tree_param":{"num_deleted":"0","num_feature":"9","num_nodes":"7","size_leaf_vector":"1"}},{"base_weights":[9.578471E-5,-3.9426076E-1,8.337489E-3,-8.620881E-3,-6.2918186E-2,-1.6552284E-4,1.0107584E-2],"categories":[],"categories_nodes":[],"categories_segments":[],"categories_sizes":[],"default_left":[0,0,0,0,0,0,0],"id":88,"left_children":[1,3,5,-1,-1,-1,-1],"loss_changes":[2.7307966E1,3.07097E1,3.7468742E1,0E0,0E0,0E0,0E0],"parents":[2147483647,0,0,1,1,2,2],"right_children":[2,4,6,-1,-1,-1,-1],"split_conditions":[1E0,1E0,1E0,-8.620881E-3,-6.2918186E-2,-1.6552284E-4,1.0107584E-2],"split_indices":[1,3,3,0,0,0,0],"split_type":[0,0,0,0,0,0,0],"sum_hessian":[8.4E3,1.71E2,8.229E3,1.62E2,9E0,7.897E3,3.32E2],"tree_param":{"num_deleted":"0","num_feature":"9","num_nodes":"7","size_leaf_vector":"1"}},{"base_weights":[8.562777E-5,-3.6917653E-2,8.630925E-2,-1.2113021E-2,-8.8780024E-4,-1.6442205E-4,2.3387266E-2],"categories":[],"categories_nodes":[],"categories_segments":[],"categories_sizes":[],"default_left":[0,0,0,0,0,0,0],"id":89,"left_children":[1,3,5,-1,-1,-1,-1],"loss_changes":[2.6807055E1,1.5784458E1,1.6055511E2,0E0,0E0,0E0,0E0],"parents":[2147483647,0,0,1,1,2,2],"right_children":[2,4,6,-1,-1,-1,-1],"split_conditions":[1E0,1E0,1E0,-1.2113021E-2,-8.8780024E-4,-1.6442205E-4,2.3387266E-2],"split_indices":[6,1,4,0,0,0,0],"split_type":[0,0,0,0,0,0,0],"sum_hessian":[8.4E3,5.878E3,2.522E3,1.14E2,5.764E3,2.228E3,2.94E2],"tree_param":{"num_deleted":"0","num_feature":"9","num_nodes":"7","size_leaf_vector":"1"}},{"base_weights":[8.4232146E-5,-1.70675E-2,1.8392101E-1,-1.0981299E-3,3.7307173E-3,-2.3459035E-3,2.3061752E-2],"categories":[],"categories_nodes":[],"categories_segments":[],"categories_sizes":[],"default_left":[0,0,0,0,0,0,0],"id":90,"left_children":[1,3,5,-1,-1,-1,-1],"loss_changes":[2.649249E1,2.1238142E1,1.0996729E2,0E0,0E0,0E0,0E0],"parents":[2147483647,0,0,1,1,2,2],"right_children":[2,4,6,-1,-1,-1,-1],"split_conditions":[1E0,1E0,1E0,-1.0981299E-3,3.7307173E-3,-2.3459035E-3,2.3061752E-2],"split_indices":[5,4,6,0,0,0,0],"split_type":[0,0,0,0,0,0,0],"sum_hessian":[8.4E3,7.684E3,7.16E2,6.752E3,9.32E2,4.95E2,2.21E2],"tree_param":{"num_deleted":"0","num_feature":"9","num_nodes":"7","size_leaf_vector":"1"}},{"base_weights":[8.449439E-5,-1.6555121E-2,1.7843229E-1,-1.1518765E-2,-2.7122855E-4,-2.2756679E-3,2.2373017E-2],"categories":[],"categories_nodes":[],"categories_segments":[],"categories_sizes":[],"default_left":[0,0,0,0,0,0,0],"id":91,"left_children":[1,3,5,-1,-1,-1,-1],"loss_changes":[2.4934088E1,2.121277E1,1.03495575E2,0E0,0E0,0E0,0E0],"parents":[2147483647,0,0,1,1,2,2],"right_children":[2,4,6,-1,-1,-1,-1],"split_conditions":[1E0,1E0,1E0,-1.1518765E-2,-2.7122855E-4,-2.2756679E-3,2.2373017E-2],"split_indices":[5,1,6,0,0,0,0],"split_type":[0,0,0,0,0,0,0],"sum_hessian":[8.4E3,7.684E3,7.16E2,1.53E2,7.531E3,4.95E2,2.21E2],"tree_param":{"num_deleted":"0","num_feature":"9","num_nodes":"7","size_leaf_vector":"1"}},{"base_weights":[8.292285E-5,-1.0873778E-2,2.58302E-1,-1.1508384E-3,1.6029433E-3,3.1208575E-2,-3.8103934E-3],"categories":[],"categories_nodes":[],"categories_segments":[],"categories_sizes":[],"default_left":[0,0,0,0,0,0,0],"id":92,"left_children":[1,3,5,-1,-1,-1,-1],"loss_changes":[2.3771164E1,1.4248825E1,1.0318022E2,0E0,0E0,0E0,0E0],"parents":[2147483647,0,0,1,1,2,2],"right_children":[2,4,6,-1,-1,-1,-1],"split_conditions":[1E0,1E0,2E0,-1.1508384E-3,1.6029433E-3,3.1208575E-2,-3.8103934E-3],"split_indices":[3,6,3,0,0,0,0],"split_type":[0,0,0,0,0,0,0],"sum_hessian":[8.4E3,8.059E3,3.41E2,5.646E3,2.413E3,1.12E2,2.29E2],"tree_param":{"num_deleted":"0","num_feature":"9","num_nodes":"7","size_leaf_vector":"1"}},{"base_weights":[8.376581E-5,-1.6068904E-2,1.7321233E-1,-1.0513299E-3,3.6387406E-3,-2.17946E-3,2.1652292E-2],"categories":[],"categories_nodes":[],"categories_segments":[],"categories_sizes":[],"default_left":[0,0,0,0,0,0,0],"id":93,"left_children":[1,3,5,-1,-1,-1,-1],"loss_changes":[2.3496082E1,2.003497E1,9.674872E1,0E0,0E0,0E0,0E0],"parents":[2147483647,0,0,1,1,2,2],"right_children":[2,4,6,-1,-1,-1,-1],"split_conditions":[1E0,1E0,1E0,-1.0513299E-3,3.6387406E-3,-2.17946E-3,2.1652292E-2],"split_indices":[5,4,6,0,0,0,0],"split_type":[0,0,0,0,0,0,0],"sum_hessian":[8.4E3,7.684E3,7.16E2,6.752E3,9.32E2,4.95E2,2.21E2],"tree_param":{"num_deleted":"0","num_feature":"9","num_nodes":"7","size_leaf_vector":"1"}},{"base_weights":[8.3857856E-5,-3.650302E-1,7.714421E-3,-9.518188E-3,-1.2797283E-1,-1.6102102E-4,9.538842E-3],"categories":[],"categories_nodes":[],"categories_segments":[],"categories_sizes":[],"default_left":[0,0,0,0,0,0,0],"id":94,"left_children":[1,3,5,-1,-1,-1,-1],"loss_changes":[2.340822E1,3.0688162E1,3.3403866E1,0E0,0E0,0E0,0E0],"parents":[2147483647,0,0,1,1,2,2],"right_children":[2,4,6,-1,-1,-1,-1],"split_conditions":[1E0,8.9E1,1E0,-9.518188E-3,-1.2797283E-1,-1.6102102E-4,9.538842E-3],"split_indices":[1,0,3,0,0,0,0],"split_type":[0,0,0,0,0,0,0],"sum_hessian":[8.4E3,1.71E2,8.229E3,1.7E2,1E0,7.897E3,3.32E2],"tree_param":{"num_deleted":"0","num_feature":"9","num_nodes":"7","size_leaf_vector":"1"}},{"base_weights":[6.612249E-5,-1.5610016E-2,1.6808712E-1,-1.0207538E-3,3.5308267E-3,-2.1079564E-3,2.0995947E-2],"categories":[],"categories_nodes":[],"categories_segments":[],"categories_sizes":[],"default_left":[0,0,0,0,0,0,0],"id":95,"left_children":[1,3,5,-1,-1,-1,-1],"loss_changes":[2.213019E1,1.8869236E1,9.0929276E1,0E0,0E0,0E0,0E0],"parents":[2147483647,0,0,1,1,2,2],"right_children":[2,4,6,-1,-1,-1,-1],"split_conditions":[1E0,1E0,1E0,-1.0207538E-3,3.5308267E-3,-2.1079564E-3,2.0995947E-2],"split_indices":[5,4,6,0,0,0,0],"split_type":[0,0,0,0,0,0,0],"sum_hessian":[8.4E3,7.684E3,7.16E2,6.752E3,9.32E2,4.95E2,2.21E2],"tree_param":{"num_deleted":"0","num_feature":"9","num_nodes":"7","size_leaf_vector":"1"}},{"base_weights":[6.670692E-5,-3.5465384E-1,7.4800565E-3,-9.227707E-3,-1.2603793E-1,-1.5596689E-4,9.245202E-3],"categories":[],"categories_nodes":[],"categories_segments":[],"categories_sizes":[],"default_left":[0,0,0,0,0,0,0],"id":96,"left_children":[1,3,5,-1,-1,-1,-1],"loss_changes":[2.2094486E1,2.9845812E1,3.1378286E1,0E0,0E0,0E0,0E0],"parents":[2147483647,0,0,1,1,2,2],"right_children":[2,4,6,-1,-1,-1,-1],"split_conditions":[1E0,8.9E1,1E0,-9.227707E-3,-1.2603793E-1,-1.5596689E-4,9.245202E-3],"split_indices":[1,0,3,0,0,0,0],"split_type":[0,0,0,0,0,0,0],"sum_hessian":[8.4E3,1.71E2,8.229E3,1.7E2,1E0,7.897E3,3.32E2],"tree_param":{"num_deleted":"0","num_feature":"9","num_nodes":"7","size_leaf_vector":"1"}},{"base_weights":[4.9652583E-5,-3.4480065E-1,7.256725E-3,-8.952495E-3,-1.2414736E-1,-1.512897E-4,8.968683E-3],"categories":[],"categories_nodes":[],"categories_segments":[],"categories_sizes":[],"default_left":[0,0,0,0,0,0,0],"id":97,"left_children":[1,3,5,-1,-1,-1,-1],"loss_changes":[2.0882019E1,2.9029467E1,2.9529259E1,0E0,0E0,0E0,0E0],"parents":[2147483647,0,0,1,1,2,2],"right_children":[2,4,6,-1,-1,-1,-1],"split_conditions":[1E0,8.9E1,1E0,-8.952495E-3,-1.2414736E-1,-1.512897E-4,8.968683E-3],"split_indices":[1,0,3,0,0,0,0],"split_type":[0,0,0,0,0,0,0],"sum_hessian":[8.4E3,1.71E2,8.229E3,1.7E2,1E0,7.897E3,3.32E2],"tree_param":{"num_deleted":"0","num_feature":"9","num_nodes":"7","size_leaf_vector":"1"}},{"base_weights":[3.3360513E-5,-1.5185644E-2,1.6315472E-1,-9.919442E-4,3.4271698E-3,-2.0329137E-3,2.0350374E-2],"categories":[],"categories_nodes":[],"categories_segments":[],"categories_sizes":[],"default_left":[0,0,0,0,0,0,0],"id":98,"left_children":[1,3,5,-1,-1,-1,-1],"loss_changes":[2.0858335E1,1.7786901E1,8.534541E1,0E0,0E0,0E0,0E0],"parents":[2147483647,0,0,1,1,2,2],"right_children":[2,4,6,-1,-1,-1,-1],"split_conditions":[1E0,1E0,1E0,-9.919442E-4,3.4271698E-3,-2.0329137E-3,2.0350374E-2],"split_indices":[5,4,6,0,0,0,0],"split_type":[0,0,0,0,0,0,0],"sum_hessian":[8.4E3,7.684E3,7.16E2,6.752E3,9.32E2,4.95E2,2.21E2],"tree_param":{"num_deleted":"0","num_feature":"9","num_nodes":"7","size_leaf_vector":"1"}},{"base_weights":[3.4826484E-5,-3.1973116E-2,7.461852E-2,-4.5344373E-4,-4.646461E-3,-3.7945647E-4,2.2012489E-2],"categories":[],"categories_nodes":[],"categories_segments":[],"categories_sizes":[],"default_left":[0,0,0,0,0,0,0],"id":99,"left_children":[1,3,5,-1,-1,-1,-1],"loss_changes":[2.0057848E1,1.2179174E1,1.4513336E2,0E0,0E0,0E0,0E0],"parents":[2147483647,0,0,1,1,2,2],"right_children":[2,4,6,-1,-1,-1,-1],"split_conditions":[1E0,1E0,1E0,-4.5344373E-4,-4.646461E-3,-3.7945647E-4,2.2012489E-2],"split_indices":[6,4,4,0,0,0,0],"split_type":[0,0,0,0,0,0,0],"sum_hessian":[8.4E3,5.878E3,2.522E3,5.17E3,7.08E2,2.228E3,2.94E2],"tree_param":{"num_deleted":"0","num_feature":"9","num_nodes":"7","size_leaf_vector":"1"}},{"base_weights":[3.575672E-5,-3.3505848E-1,7.0389365E-3,-8.680553E-3,-1.2226348E-1,-1.4667117E-4,8.697665E-3],"categories":[],"categories_nodes":[],"categories_segments":[],"categories_sizes":[],"default_left":[0,0,0,0,0,0,0],"id":100,"left_children":[1,3,5,-1,-1,-1,-1],"loss_changes":[1.9717196E1,2.8226023E1,2.7771284E1,0E0,0E0,0E0,0E0],"parents":[2147483647,0,0,1,1,2,2],"right_children":[2,4,6,-1,-1,-1,-1],"split_conditions":[1E0,8.9E1,1E0,-8.680553E-3,-1.2226348E-1,-1.4667117E-4,8.697665E-3],"split_indices":[1,0,3,0,0,0,0],"split_type":[0,0,0,0,0,0,0],"sum_hessian":[8.4E3,1.71E2,8.229E3,1.7E2,1E0,7.897E3,3.32E2],"tree_param":{"num_deleted":"0","num_feature":"9","num_nodes":"7","size_leaf_vector":"1"}},{"base_weights":[2.0077005E-5,-1.4748359E-2,1.5831214E-1,-9.501104E-4,3.232434E-3,-1.9408596E-3,1.9675497E-2],"categories":[],"categories_nodes":[],"categories_segments":[],"categories_sizes":[],"default_left":[0,0,0,0,0,0,0],"id":101,"left_children":[1,3,5,-1,-1,-1,-1],"loss_changes":[1.9641575E1,1.5933482E1,7.959691E1,0E0,0E0,0E0,0E0],"parents":[2147483647,0,0,1,1,2,2],"right_children":[2,4,6,-1,-1,-1,-1],"split_conditions":[1E0,1E0,1E0,-9.501104E-4,3.232434E-3,-1.9408596E-3,1.9675497E-2],"split_indices":[5,4,6,0,0,0,0],"split_type":[0,0,0,0,0,0,0],"sum_hessian":[8.4E3,7.684E3,7.16E2,6.752E3,9.32E2,4.95E2,2.21E2],"tree_param":{"num_deleted":"0","num_feature":"9","num_nodes":"7","size_leaf_vector":"1"}},{"base_weights":[2.1840076E-5,-3.2555473E-1,6.8261106E-3,-6.7275236E-3,-5.8327597E-2,-1.4202848E-4,8.429753E-3],"categories":[],"categories_nodes":[],"categories_segments":[],"categories_sizes":[],"default_left":[0,0,0,0,0,0,0],"id":102,"left_children":[1,3,5,-1,-1,-1,-1],"loss_changes":[1.861305E1,2.7768652E1,2.6086008E1,0E0,0E0,0E0,0E0],"parents":[2147483647,0,0,1,1,2,2],"right_children":[2,4,6,-1,-1,-1,-1],"split_conditions":[1E0,1E0,1E0,-6.7275236E-3,-5.8327597E-2,-1.4202848E-4,8.429753E-3],"split_indices":[1,3,3,0,0,0,0],"split_type":[0,0,0,0,0,0,0],"sum_hessian":[8.4E3,1.71E2,8.229E3,1.62E2,9E0,7.897E3,3.32E2],"tree_param":{"num_deleted":"0","num_feature":"9","num_nodes":"7","size_leaf_vector":"1"}},{"base_weights":[1.4382952E-5,-1.4313434E-2,1.535838E-1,-9.220646E-4,3.1369133E-3,-1.8788675E-3,1.9078854E-2],"categories":[],"categories_nodes":[],"categories_segments":[],"categories_sizes":[],"default_left":[0,0,0,0,0,0,0],"id":103,"left_children":[1,3,5,-1,-1,-1,-1],"loss_changes":[1.848704E1,1.5005931E1,7.482025E1,0E0,0E0,0E0,0E0],"parents":[2147483647,0,0,1,1,2,2],"right_children":[2,4,6,-1,-1,-1,-1],"split_conditions":[1E0,1E0,1E0,-9.220646E-4,3.1369133E-3,-1.8788675E-3,1.9078854E-2],"split_indices":[5,4,6,0,0,0,0],"split_type":[0,0,0,0,0,0,0],"sum_hessian":[8.4E3,7.684E3,7.16E2,6.752E3,9.32E2,4.95E2,2.21E2],"tree_param":{"num_deleted":"0","num_feature":"9","num_nodes":"7","size_leaf_vector":"1"}},{"base_weights":[1.6282944E-5,-2.9921344E-2,6.977581E-2,-3.793988E-4,-4.6761013E-3,-4.2202693E-4,2.1091623E-2],"categories":[],"categories_nodes":[],"categories_segments":[],"categories_sizes":[],"default_left":[0,0,0,0,0,0,0],"id":104,"left_children":[1,3,5,-1,-1,-1,-1],"loss_changes":[1.7547028E1,1.2789135E1,1.3397159E2,0E0,0E0,0E0,0E0],"parents":[2147483647,0,0,1,1,2,2],"right_children":[2,4,6,-1,-1,-1,-1],"split_conditions":[1E0,1E0,1E0,-3.793988E-4,-4.6761013E-3,-4.2202693E-4,2.1091623E-2],"split_indices":[6,4,4,0,0,0,0],"split_type":[0,0,0,0,0,0,0],"sum_hessian":[8.4E3,5.878E3,2.522E3,5.17E3,7.08E2,2.228E3,2.94E2],"tree_param":{"num_deleted":"0","num_feature":"9","num_nodes":"7","size_leaf_vector":"1"}},{"base_weights":[1.7677252E-5,-3.159941E-1,6.6220528E-3,-8.1373565E-3,-1.1952084E-1,-1.3767714E-4,8.175252E-3],"categories":[],"categories_nodes":[],"categories_segments":[],"categories_sizes":[],"default_left":[0,0,0,0,0,0,0],"id":105,"left_children":[1,3,5,-1,-1,-1,-1],"loss_changes":[1.7535488E1,2.7151516E1,2.4534296E1,0E0,0E0,0E0,0E0],"parents":[2147483647,0,0,1,1,2,2],"right_children":[2,4,6,-1,-1,-1,-1],"split_conditions":[1E0,8.9E1,1E0,-8.1373565E-3,-1.1952084E-1,-1.3767714E-4,8.175252E-3],"split_indices":[1,0,3,0,0,0,0],"split_type":[0,0,0,0,0,0,0],"sum_hessian":[8.4E3,1.71E2,8.229E3,1.7E2,1E0,7.897E3,3.32E2],"tree_param":{"num_deleted":"0","num_feature":"9","num_nodes":"7","size_leaf_vector":"1"}},{"base_weights":[2.9217363E-6,-1.3900234E-2,1.490207E-1,-9.410672E-3,-2.3306631E-4,-1.7937133E-3,1.8446473E-2],"categories":[],"categories_nodes":[],"categories_segments":[],"categories_sizes":[],"default_left":[0,0,0,0,0,0,0],"id":106,"left_children":[1,3,5,-1,-1,-1,-1],"loss_changes":[1.740741E1,1.4123458E1,6.978447E1,0E0,0E0,0E0,0E0],"parents":[2147483647,0,0,1,1,2,2],"right_children":[2,4,6,-1,-1,-1,-1],"split_conditions":[1E0,1E0,1E0,-9.410672E-3,-2.3306631E-4,-1.7937133E-3,1.8446473E-2],"split_indices":[5,1,6,0,0,0,0],"split_type":[0,0,0,0,0,0,0],"sum_hessian":[8.4E3,7.684E3,7.16E2,1.53E2,7.531E3,4.95E2,2.21E2],"tree_param":{"num_deleted":"0","num_feature":"9","num_nodes":"7","size_leaf_vector":"1"}},{"base_weights":[3.6553447E-6,-1.34844985E-2,1.4457333E-1,-8.7118935E-4,2.9735162E-3,-1.7400095E-3,1.7895574E-2],"categories":[],"categories_nodes":[],"categories_segments":[],"categories_sizes":[],"default_left":[0,0,0,0,0,0,0],"id":107,"left_children":[1,3,5,-1,-1,-1,-1],"loss_changes":[1.6383715E1,1.3463434E1,6.567761E1,0E0,0E0,0E0,0E0],"parents":[2147483647,0,0,1,1,2,2],"right_children":[2,4,6,-1,-1,-1,-1],"split_conditions":[1E0,1E0,1E0,-8.7118935E-4,2.9735162E-3,-1.7400095E-3,1.7895574E-2],"split_indices":[5,4,6,0,0,0,0],"split_type":[0,0,0,0,0,0,0],"sum_hessian":[8.4E3,7.684E3,7.16E2,6.752E3,9.32E2,4.95E2,2.21E2],"tree_param":{"num_deleted":"0","num_feature":"9","num_nodes":"7","size_leaf_vector":"1"}},{"base_weights":[5.7120724E-6,-2.9874074E-1,6.2492583E-3,-7.639501E-3,-1.175738E-1,-1.3817393E-4,7.910629E-3],"categories":[],"categories_nodes":[],"categories_segments":[],"categories_sizes":[],"default_left":[0,0,0,0,0,0,0],"id":108,"left_children":[1,3,5,-1,-1,-1,-1],"loss_changes":[1.5671726E1,2.6457565E1,2.3000015E1,0E0,0E0,0E0,0E0],"parents":[2147483647,0,0,1,1,2,2],"right_children":[2,4,6,-1,-1,-1,-1],"split_conditions":[1E0,8.9E1,1E0,-7.639501E-3,-1.175738E-1,-1.3817393E-4,7.910629E-3],"split_indices":[1,0,3,0,0,0,0],"split_type":[0,0,0,0,0,0,0],"sum_hessian":[8.4E3,1.71E2,8.229E3,1.7E2,1E0,7.897E3,3.32E2],"tree_param":{"num_deleted":"0","num_feature":"9","num_nodes":"7","size_leaf_vector":"1"}},{"base_weights":[-8.449278E-6,-1.3098388E-2,1.4029306E-1,-8.458161E-4,2.8852762E-3,-1.6828481E-3,1.7353138E-2],"categories":[],"categories_nodes":[],"categories_segments":[],"categories_sizes":[],"default_left":[0,0,0,0,0,0,0],"id":109,"left_children":[1,3,5,-1,-1,-1,-1],"loss_changes":[1.5430595E1,1.2679485E1,6.1727715E1,0E0,0E0,0E0,0E0],"parents":[2147483647,0,0,1,1,2,2],"right_children":[2,4,6,-1,-1,-1,-1],"split_conditions":[1E0,1E0,1E0,-8.458161E-4,2.8852762E-3,-1.6828481E-3,1.7353138E-2],"split_indices":[5,4,6,0,0,0,0],"split_type":[0,0,0,0,0,0,0],"sum_hessian":[8.4E3,7.684E3,7.16E2,6.752E3,9.32E2,4.95E2,2.21E2],"tree_param":{"num_deleted":"0","num_feature":"9","num_nodes":"7","size_leaf_vector":"1"}},{"base_weights":[-6.099903E-6,-2.7513517E-2,6.4090654E-2,-2.9732872E-4,-4.675701E-3,-4.9591344E-4,2.019123E-2],"categories":[],"categories_nodes":[],"categories_segments":[],"categories_sizes":[],"default_left":[0,0,0,0,0,0,0],"id":110,"left_children":[1,3,5,-1,-1,-1,-1],"loss_changes":[1.4813869E1,1.32801075E1,1.2387591E2,0E0,0E0,0E0,0E0],"parents":[2147483647,0,0,1,1,2,2],"right_children":[2,4,6,-1,-1,-1,-1],"split_conditions":[1E0,1E0,1E0,-2.9732872E-4,-4.675701E-3,-4.9591344E-4,2.019123E-2],"split_indices":[6,4,4,0,0,0,0],"split_type":[0,0,0,0,0,0,0],"sum_hessian":[8.4E3,5.878E3,2.522E3,5.17E3,7.08E2,2.228E3,2.94E2],"tree_param":{"num_deleted":"0","num_feature":"9","num_nodes":"7","size_leaf_vector":"1"}},{"base_weights":[-4.1707785E-6,-2.903423E-1,6.0636494E-3,-7.406901E-3,-1.1579304E-1,-1.3392705E-4,7.672285E-3],"categories":[],"categories_nodes":[],"categories_segments":[],"categories_sizes":[],"default_left":[0,0,0,0,0,0,0],"id":111,"left_children":[1,3,5,-1,-1,-1,-1],"loss_changes":[1.4801966E1,2.572007E1,2.1634468E1,0E0,0E0,0E0,0E0],"parents":[2147483647,0,0,1,1,2,2],"right_children":[2,4,6,-1,-1,-1,-1],"split_conditions":[1E0,8.9E1,1E0,-7.406901E-3,-1.1579304E-1,-1.3392705E-4,7.672285E-3],"split_indices":[1,0,3,0,0,0,0],"split_type":[0,0,0,0,0,0,0],"sum_hessian":[8.4E3,1.71E2,8.229E3,1.7E2,1E0,7.897E3,3.32E2],"tree_param":{"num_deleted":"0","num_feature":"9","num_nodes":"7","size_leaf_vector":"1"}},{"base_weights":[-1.7865877E-5,-1.2719421E-2,1.3612086E-1,-8.626158E-3,-2.1296256E-4,-1.6062069E-3,1.677765E-2],"categories":[],"categories_nodes":[],"categories_segments":[],"categories_sizes":[],"default_left":[0,0,0,0,0,0,0],"id":112,"left_children":[1,3,5,-1,-1,-1,-1],"loss_changes":[1.4528518E1,1.1868729E1,5.757069E1,0E0,0E0,0E0,0E0],"parents":[2147483647,0,0,1,1,2,2],"right_children":[2,4,6,-1,-1,-1,-1],"split_conditions":[1E0,1E0,1E0,-8.626158E-3,-2.1296256E-4,-1.6062069E-3,1.677765E-2],"split_indices":[5,1,6,0,0,0,0],"split_type":[0,0,0,0,0,0,0],"sum_hessian":[8.4E3,7.684E3,7.16E2,1.53E2,7.531E3,4.95E2,2.21E2],"tree_param":{"num_deleted":"0","num_feature":"9","num_nodes":"7","size_leaf_vector":"1"}},{"base_weights":[-1.662693E-5,-1.2339045E-2,1.3205841E-1,-7.9926226E-4,2.7359605E-3,-1.5581173E-3,1.6276589E-2],"categories":[],"categories_nodes":[],"categories_segments":[],"categories_sizes":[],"default_left":[0,0,0,0,0,0,0],"id":113,"left_children":[1,3,5,-1,-1,-1,-1],"loss_changes":[1.3674123E1,1.1383171E1,5.4182625E1,0E0,0E0,0E0,0E0],"parents":[2147483647,0,0,1,1,2,2],"right_children":[2,4,6,-1,-1,-1,-1],"split_conditions":[1E0,1E0,1E0,-7.9926226E-4,2.7359605E-3,-1.5581173E-3,1.6276589E-2],"split_indices":[5,4,6,0,0,0,0],"split_type":[0,0,0,0,0,0,0],"sum_hessian":[8.4E3,7.684E3,7.16E2,6.752E3,9.32E2,4.95E2,2.21E2],"tree_param":{"num_deleted":"0","num_feature":"9","num_nodes":"7","size_leaf_vector":"1"}},{"base_weights":[-1.4123E-5,-2.7454734E-1,5.7233893E-3,-5.3441436E-3,-5.4556884E-2,-1.3411898E-4,7.4245543E-3],"categories":[],"categories_nodes":[],"categories_segments":[],"categories_sizes":[],"default_left":[0,0,0,0,0,0,0],"id":114,"left_children":[1,3,5,-1,-1,-1,-1],"loss_changes":[1.32343025E1,2.5279503E1,2.0284143E1,0E0,0E0,0E0,0E0],"parents":[2147483647,0,0,1,1,2,2],"right_children":[2,4,6,-1,-1,-1,-1],"split_conditions":[1E0,1E0,1E0,-5.3441436E-3,-5.4556884E-2,-1.3411898E-4,7.4245543E-3],"split_indices":[1,3,3,0,0,0,0],"split_type":[0,0,0,0,0,0,0],"sum_hessian":[8.4E3,1.71E2,8.229E3,1.62E2,9E0,7.897E3,3.32E2],"tree_param":{"num_deleted":"0","num_feature":"9","num_nodes":"7","size_leaf_vector":"1"}},{"base_weights":[-1.996817E-5,-2.576497E-2,5.9970077E-2,-2.4910682E-4,-4.592435E-3,-5.3767354E-4,1.9449523E-2],"categories":[],"categories_nodes":[],"categories_segments":[],"categories_sizes":[],"default_left":[0,0,0,0,0,0,0],"id":115,"left_children":[1,3,5,-1,-1,-1,-1],"loss_changes":[1.29764185E1,1.3068452E1,1.1563533E2,0E0,0E0,0E0,0E0],"parents":[2147483647,0,0,1,1,2,2],"right_children":[2,4,6,-1,-1,-1,-1],"split_conditions":[1E0,1E0,1E0,-2.4910682E-4,-4.592435E-3,-5.3767354E-4,1.9449523E-2],"split_indices":[6,4,4,0,0,0,0],"split_type":[0,0,0,0,0,0,0],"sum_hessian":[8.4E3,5.878E3,2.522E3,5.17E3,7.08E2,2.228E3,2.94E2],"tree_param":{"num_deleted":"0","num_feature":"9","num_nodes":"7","size_leaf_vector":"1"}},{"base_weights":[-1.7680142E-5,-1.1969861E-2,1.2808906E-1,-8.118549E-3,-2.0039761E-4,-1.4885494E-3,1.573656E-2],"categories":[],"categories_nodes":[],"categories_segments":[],"categories_sizes":[],"default_left":[0,0,0,0,0,0,0],"id":116,"left_children":[1,3,5,-1,-1,-1,-1],"loss_changes":[1.2864766E1,1.0513079E1,5.054182E1,0E0,0E0,0E0,0E0],"parents":[2147483647,0,0,1,1,2,2],"right_children":[2,4,6,-1,-1,-1,-1],"split_conditions":[1E0,1E0,1E0,-8.118549E-3,-2.0039761E-4,-1.4885494E-3,1.573656E-2],"split_indices":[5,1,6,0,0,0,0],"split_type":[0,0,0,0,0,0,0],"sum_hessian":[8.4E3,7.684E3,7.16E2,1.53E2,7.531E3,4.95E2,2.21E2],"tree_param":{"num_deleted":"0","num_feature":"9","num_nodes":"7","size_leaf_vector":"1"}},{"base_weights":[-1.6451004E-5,-1.1611856E-2,1.2426626E-1,-7.550059E-4,2.5953287E-3,-1.4439825E-3,1.5266588E-2],"categories":[],"categories_nodes":[],"categories_segments":[],"categories_sizes":[],"default_left":[0,0,0,0,0,0,0],"id":117,"left_children":[1,3,5,-1,-1,-1,-1],"loss_changes":[1.2108194E1,1.0223655E1,4.756741E1,0E0,0E0,0E0,0E0],"parents":[2147483647,0,0,1,1,2,2],"right_children":[2,4,6,-1,-1,-1,-1],"split_conditions":[1E0,1E0,1E0,-7.550059E-4,2.5953287E-3,-1.4439825E-3,1.5266588E-2],"split_indices":[5,4,6,0,0,0,0],"split_type":[0,0,0,0,0,0,0],"sum_hessian":[8.4E3,7.684E3,7.16E2,6.752E3,9.32E2,4.95E2,2.21E2],"tree_param":{"num_deleted":"0","num_feature":"9","num_nodes":"7","size_leaf_vector":"1"}},{"base_weights":[-1.4127019E-5,-2.5933665E-1,5.405495E-3,-6.5044323E-3,-1.1295958E-1,-1.341818E-4,7.190344E-3],"categories":[],"categories_nodes":[],"categories_segments":[],"categories_sizes":[],"default_left":[0,0,0,0,0,0,0],"id":118,"left_children":[1,3,5,-1,-1,-1,-1],"loss_changes":[1.1808418E1,2.4825768E1,1.9046911E1,0E0,0E0,0E0,0E0],"parents":[2147483647,0,0,1,1,2,2],"right_children":[2,4,6,-1,-1,-1,-1],"split_conditions":[1E0,8.9E1,1E0,-6.5044323E-3,-1.1295958E-1,-1.341818E-4,7.190344E-3],"split_indices":[1,0,3,0,0,0,0],"split_type":[0,0,0,0,0,0,0],"sum_hessian":[8.4E3,1.71E2,8.229E3,1.7E2,1E0,7.897E3,3.32E2],"tree_param":{"num_deleted":"0","num_feature":"9","num_nodes":"7","size_leaf_vector":"1"}},{"base_weights":[-2.704336E-5,-1.12800645E-2,1.2058592E-1,-1.5856091E-4,-6.707943E-3,-1.3963262E-3,1.4803517E-2],"categories":[],"categories_nodes":[],"categories_segments":[],"categories_sizes":[],"default_left":[0,0,0,0,0,0,0],"id":119,"left_children":[1,3,5,-1,-1,-1,-1],"loss_changes":[1.1403704E1,9.780156E0,4.47042E1,0E0,0E0,0E0,0E0],"parents":[2147483647,0,0,1,1,2,2],"right_children":[2,4,6,-1,-1,-1,-1],"split_conditions":[1E0,2E0,1E0,-1.5856091E-4,-6.707943E-3,-1.3963262E-3,1.4803517E-2],"split_indices":[5,3,6,0,0,0,0],"split_type":[0,0,0,0,0,0,0],"sum_hessian":[8.4E3,7.684E3,7.16E2,7.474E3,2.1E2,4.95E2,2.21E2],"tree_param":{"num_deleted":"0","num_feature":"9","num_nodes":"7","size_leaf_vector":"1"}},{"base_weights":[-2.5470326E-5,-7.623435E-3,1.7903775E-1,-7.2987325E-4,9.4376464E-4,2.8230306E-2,-5.883032E-3],"categories":[],"categories_nodes":[],"categories_segments":[],"categories_sizes":[],"default_left":[0,0,0,0,0,0,0],"id":120,"left_children":[1,3,5,-1,-1,-1,-1],"loss_changes":[1.143106E1,5.2631025E0,9.794367E1,0E0,0E0,0E0,0E0],"parents":[2147483647,0,0,1,1,2,2],"right_children":[2,4,6,-1,-1,-1,-1],"split_conditions":[1E0,1E0,2E0,-7.2987325E-4,9.4376464E-4,2.8230306E-2,-5.883032E-3],"split_indices":[3,6,3,0,0,0,0],"split_type":[0,0,0,0,0,0,0],"sum_hessian":[8.4E3,8.059E3,3.41E2,5.646E3,2.413E3,1.12E2,2.29E2],"tree_param":{"num_deleted":"0","num_feature":"9","num_nodes":"7","size_leaf_vector":"1"}},{"base_weights":[-2.2001332E-5,-2.518126E-1,5.240211E-3,-6.2922835E-3,-1.1168626E-1,-1.2801852E-4,6.9216164E-3],"categories":[],"categories_nodes":[],"categories_segments":[],"categories_sizes":[],"default_left":[0,0,0,0,0,0,0],"id":121,"left_children":[1,3,5,-1,-1,-1,-1],"loss_changes":[1.1132439E1,2.4335793E1,1.7644073E1,0E0,0E0,0E0,0E0],"parents":[2147483647,0,0,1,1,2,2],"right_children":[2,4,6,-1,-1,-1,-1],"split_conditions":[1E0,8.9E1,1E0,-6.2922835E-3,-1.1168626E-1,-1.2801852E-4,6.9216164E-3],"split_indices":[1,0,3,0,0,0,0],"split_type":[0,0,0,0,0,0,0],"sum_hessian":[8.4E3,1.71E2,8.229E3,1.7E2,1E0,7.897E3,3.32E2],"tree_param":{"num_deleted":"0","num_feature":"9","num_nodes":"7","size_leaf_vector":"1"}},{"base_weights":[-3.456734E-5,-1.0964099E-2,1.1711116E-1,-7.241212E-4,2.5318512E-3,-1.3326143E-3,1.4324495E-2],"categories":[],"categories_nodes":[],"categories_segments":[],"categories_sizes":[],"default_left":[0,0,0,0,0,0,0],"id":122,"left_children":[1,3,5,-1,-1,-1,-1],"loss_changes":[1.0757486E1,9.655873E0,4.1758846E1,0E0,0E0,0E0,0E0],"parents":[2147483647,0,0,1,1,2,2],"right_children":[2,4,6,-1,-1,-1,-1],"split_conditions":[1E0,1E0,1E0,-7.241212E-4,2.5318512E-3,-1.3326143E-3,1.4324495E-2],"split_indices":[5,4,6,0,0,0,0],"split_type":[0,0,0,0,0,0,0],"sum_hessian":[8.4E3,7.684E3,7.16E2,6.752E3,9.32E2,4.95E2,2.21E2],"tree_param":{"num_deleted":"0","num_feature":"9","num_nodes":"7","size_leaf_vector":"1"}},{"base_weights":[-3.1809766E-5,-2.4479693E-1,5.083577E-3,-6.100304E-3,-1.100001E-1,-1.2395339E-4,6.709066E-3],"categories":[],"categories_nodes":[],"categories_segments":[],"categories_sizes":[],"default_left":[0,0,0,0,0,0,0],"id":123,"left_children":[1,3,5,-1,-1,-1,-1],"loss_changes":[1.051987E1,2.3652348E1,1.6576427E1,0E0,0E0,0E0,0E0],"parents":[2147483647,0,0,1,1,2,2],"right_children":[2,4,6,-1,-1,-1,-1],"split_conditions":[1E0,8.9E1,1E0,-6.100304E-3,-1.100001E-1,-1.2395339E-4,6.709066E-3],"split_indices":[1,0,3,0,0,0,0],"split_type":[0,0,0,0,0,0,0],"sum_hessian":[8.4E3,1.71E2,8.229E3,1.7E2,1E0,7.897E3,3.32E2],"tree_param":{"num_deleted":"0","num_feature":"9","num_nodes":"7","size_leaf_vector":"1"}},{"base_weights":[-4.3869957E-5,-2.283219E-2,5.305664E-2,-1.5489796E-4,-4.54998E-3,-6.5761944E-4,1.8582001E-2],"categories":[],"categories_nodes":[],"categories_segments":[],"categories_sizes":[],"default_left":[0,0,0,0,0,0,0],"id":124,"left_children":[1,3,5,-1,-1,-1,-1],"loss_changes":[1.0167022E1,1.3381908E1,1.0714746E2,0E0,0E0,0E0,0E0],"parents":[2147483647,0,0,1,1,2,2],"right_children":[2,4,6,-1,-1,-1,-1],"split_conditions":[1E0,1E0,1E0,-1.5489796E-4,-4.54998E-3,-6.5761944E-4,1.8582001E-2],"split_indices":[6,4,4,0,0,0,0],"split_type":[0,0,0,0,0,0,0],"sum_hessian":[8.4E3,5.878E3,2.522E3,5.17E3,7.08E2,2.228E3,2.94E2],"tree_param":{"num_deleted":"0","num_feature":"9","num_nodes":"7","size_leaf_vector":"1"}},{"base_weights":[-4.0962124E-5,-1.06456075E-2,1.1362255E-1,-1.3927289E-4,-6.698009E-3,-1.2714629E-3,1.3849851E-2],"categories":[],"categories_nodes":[],"categories_segments":[],"categories_sizes":[],"default_left":[0,0,0,0,0,0,0],"id":125,"left_children":[1,3,5,-1,-1,-1,-1],"loss_changes":[1.012745E1,9.808128E0,3.8949604E1,0E0,0E0,0E0,0E0],"parents":[2147483647,0,0,1,1,2,2],"right_children":[2,4,6,-1,-1,-1,-1],"split_conditions":[1E0,2E0,1E0,-1.3927289E-4,-6.698009E-3,-1.2714629E-3,1.3849851E-2],"split_indices":[5,3,6,0,0,0,0],"split_type":[0,0,0,0,0,0,0],"sum_hessian":[8.4E3,7.684E3,7.16E2,7.474E3,2.1E2,4.95E2,2.21E2],"tree_param":{"num_deleted":"0","num_feature":"9","num_nodes":"7","size_leaf_vector":"1"}},{"base_weights":[-3.9049042E-5,-2.3778245E-1,4.9295905E-3,-5.9079886E-3,-1.0834569E-1,-1.2511192E-4,6.622372E-3],"categories":[],"categories_nodes":[],"categories_segments":[],"categories_sizes":[],"default_left":[0,0,0,0,0,0,0],"id":126,"left_children":[1,3,5,-1,-1,-1,-1],"loss_changes":[9.924949E0,2.2993053E1,1.6164019E1,0E0,0E0,0E0,0E0],"parents":[2147483647,0,0,1,1,2,2],"right_children":[2,4,6,-1,-1,-1,-1],"split_conditions":[1E0,8.9E1,1E0,-5.9079886E-3,-1.0834569E-1,-1.2511192E-4,6.622372E-3],"split_indices":[1,0,3,0,0,0,0],"split_type":[0,0,0,0,0,0,0],"sum_hessian":[8.4E3,1.71E2,8.229E3,1.7E2,1E0,7.897E3,3.32E2],"tree_param":{"num_deleted":"0","num_feature":"9","num_nodes":"7","size_leaf_vector":"1"}},{"base_weights":[-5.0679202E-5,5.6846896E-3,-2.038306E-1,-2.0417856E-4,2.6896793E-2,-6.683278E-3,1.8702846E-4],"categories":[],"categories_nodes":[],"categories_segments":[],"categories_sizes":[],"default_left":[0,0,0,0,0,0,0],"id":127,"left_children":[1,3,5,-1,-1,-1,-1],"loss_changes":[9.819852E0,9.094086E1,9.1673183E-1,0E0,0E0,0E0,0E0],"parents":[2147483647,0,0,1,1,2,2],"right_children":[2,4,6,-1,-1,-1,-1],"split_conditions":[2E0,1E0,1E0,-2.0417856E-4,2.6896793E-2,-6.683278E-3,1.8702846E-4],"split_indices":[3,3,5,0,0,0,0],"split_type":[0,0,0,0,0,0,0],"sum_hessian":[8.4E3,8.171E3,2.29E2,8.059E3,1.12E2,2.1E2,1.9E1],"tree_param":{"num_deleted":"0","num_feature":"9","num_nodes":"7","size_leaf_vector":"1"}},{"base_weights":[-4.6726487E-5,-1.0331274E-2,1.101859E-1,-1.3562645E-4,-6.4837313E-3,1.9408934E-3,3.8108937E-2],"categories":[],"categories_nodes":[],"categories_segments":[],"categories_sizes":[],"default_left":[0,0,0,0,0,0,0],"id":128,"left_children":[1,3,5,-1,-1,-1,-1],"loss_changes":[9.5252905E0,9.188273E0,3.775595E1,0E0,0E0,0E0,0E0],"parents":[2147483647,0,0,1,1,2,2],"right_children":[2,4,6,-1,-1,-1,-1],"split_conditions":[1E0,2E0,1E0,-1.3562645E-4,-6.4837313E-3,1.9408934E-3,3.8108937E-2],"split_indices":[5,3,3,0,0,0,0],"split_type":[0,0,0,0,0,0,0],"sum_hessian":[8.4E3,7.684E3,7.16E2,7.474E3,2.1E2,6.9E2,2.6E1],"tree_param":{"num_deleted":"0","num_feature":"9","num_nodes":"7","size_leaf_vector":"1"}},{"base_weights":[-4.1348103E-5,-2.3098582E-1,4.7852E-3,-5.71721E-3,-1.0712192E-1,-1.1646503E-4,6.31023E-3],"categories":[],"categories_nodes":[],"categories_segments":[],"categories_sizes":[],"default_left":[0,0,0,0,0,0,0],"id":129,"left_children":[1,3,5,-1,-1,-1,-1],"loss_changes":[9.365402E0,2.2533707E1,1.4663614E1,0E0,0E0,0E0,0E0],"parents":[2147483647,0,0,1,1,2,2],"right_children":[2,4,6,-1,-1,-1,-1],"split_conditions":[1E0,8.9E1,1E0,-5.71721E-3,-1.0712192E-1,-1.1646503E-4,6.31023E-3],"split_indices":[1,0,3,0,0,0,0],"split_type":[0,0,0,0,0,0,0],"sum_hessian":[8.4E3,1.71E2,8.229E3,1.7E2,1E0,7.897E3,3.32E2],"tree_param":{"num_deleted":"0","num_feature":"9","num_nodes":"7","size_leaf_vector":"1"}},{"base_weights":[-5.2802676E-5,5.5997143E-3,-2.0088896E-1,-1.9244713E-4,2.5875662E-2,-7.244863E-3,-3.5598683E-3],"categories":[],"categories_nodes":[],"categories_segments":[],"categories_sizes":[],"default_left":[0,0,0,0,0,0,0],"id":130,"left_children":[1,3,5,-1,-1,-1,-1],"loss_changes":[9.53819E0,8.414114E1,7.392988E-1,0E0,0E0,0E0,0E0],"parents":[2147483647,0,0,1,1,2,2],"right_children":[2,4,6,-1,-1,-1,-1],"split_conditions":[2E0,1E0,1E0,-1.9244713E-4,2.5875662E-2,-7.244863E-3,-3.5598683E-3],"split_indices":[3,3,6,0,0,0,0],"split_type":[0,0,0,0,0,0,0],"sum_hessian":[8.4E3,8.171E3,2.29E2,8.059E3,1.12E2,1.52E2,7.7E1],"tree_param":{"num_deleted":"0","num_feature":"9","num_nodes":"7","size_leaf_vector":"1"}},{"base_weights":[-4.9462742E-5,-2.1715786E-2,5.0436612E-2,-1.3813293E-4,-4.3945382E-3,-6.71136E-4,1.8011896E-2],"categories":[],"categories_nodes":[],"categories_segments":[],"categories_sizes":[],"default_left":[0,0,0,0,0,0,0],"id":131,"left_children":[1,3,5,-1,-1,-1,-1],"loss_changes":[9.190509E0,1.2550779E1,1.0103783E2,0E0,0E0,0E0,0E0],"parents":[2147483647,0,0,1,1,2,2],"right_children":[2,4,6,-1,-1,-1,-1],"split_conditions":[1E0,1E0,1E0,-1.3813293E-4,-4.3945382E-3,-6.71136E-4,1.8011896E-2],"split_indices":[6,4,4,0,0,0,0],"split_type":[0,0,0,0,0,0,0],"sum_hessian":[8.4E3,5.878E3,2.522E3,5.17E3,7.08E2,2.228E3,2.94E2],"tree_param":{"num_deleted":"0","num_feature":"9","num_nodes":"7","size_leaf_vector":"1"}},{"base_weights":[-4.6464054E-5,-1.003516E-2,1.0701515E-1,-1.3224421E-4,-6.280003E-3,-1.2931768E-3,1.325816E-2],"categories":[],"categories_nodes":[],"categories_segments":[],"categories_sizes":[],"default_left":[0,0,0,0,0,0,0],"id":132,"left_children":[1,3,5,-1,-1,-1,-1],"loss_changes":[8.985153E0,8.617462E0,3.606914E1,0E0,0E0,0E0,0E0],"parents":[2147483647,0,0,1,1,2,2],"right_children":[2,4,6,-1,-1,-1,-1],"split_conditions":[1E0,2E0,1E0,-1.3224421E-4,-6.280003E-3,-1.2931768E-3,1.325816E-2],"split_indices":[5,3,6,0,0,0,0],"split_type":[0,0,0,0,0,0,0],"sum_hessian":[8.4E3,7.684E3,7.16E2,7.474E3,2.1E2,4.95E2,2.21E2],"tree_param":{"num_deleted":"0","num_feature":"9","num_nodes":"7","size_leaf_vector":"1"}},{"base_weights":[-4.441146E-5,-2.2426832E-1,4.641683E-3,-5.5288076E-3,-1.0589918E-1,-1.1176171E-4,6.092269E-3],"categories":[],"categories_nodes":[],"categories_segments":[],"categories_sizes":[],"default_left":[0,0,0,0,0,0,0],"id":133,"left_children":[1,3,5,-1,-1,-1,-1],"loss_changes":[8.828261E0,2.207832E1,1.3665118E1,0E0,0E0,0E0,0E0],"parents":[2147483647,0,0,1,1,2,2],"right_children":[2,4,6,-1,-1,-1,-1],"split_conditions":[1E0,8.9E1,1E0,-5.5288076E-3,-1.0589918E-1,-1.1176171E-4,6.092269E-3],"split_indices":[1,0,3,0,0,0,0],"split_type":[0,0,0,0,0,0,0],"sum_hessian":[8.4E3,1.71E2,8.229E3,1.7E2,1E0,7.897E3,3.32E2],"tree_param":{"num_deleted":"0","num_feature":"9","num_nodes":"7","size_leaf_vector":"1"}},{"base_weights":[-5.5607845E-5,5.439415E-3,-1.9529592E-1,-1.8450402E-4,2.496132E-2,-7.0022224E-3,-3.541048E-3],"categories":[],"categories_nodes":[],"categories_segments":[],"categories_sizes":[],"default_left":[0,0,0,0,0,0,0],"id":134,"left_children":[1,3,5,-1,-1,-1,-1],"loss_changes":[9.014075E0,7.829269E1,6.496916E-1,0E0,0E0,0E0,0E0],"parents":[2147483647,0,0,1,1,2,2],"right_children":[2,4,6,-1,-1,-1,-1],"split_conditions":[2E0,1E0,1E0,-1.8450402E-4,2.496132E-2,-7.0022224E-3,-3.541048E-3],"split_indices":[3,3,6,0,0,0,0],"split_type":[0,0,0,0,0,0,0],"sum_hessian":[8.4E3,8.171E3,2.29E2,8.059E3,1.12E2,1.52E2,7.7E1],"tree_param":{"num_deleted":"0","num_feature":"9","num_nodes":"7","size_leaf_vector":"1"}},{"base_weights":[-5.2249172E-5,5.2792607E-3,-1.894829E-1,-1.7896964E-4,2.4219105E-2,-6.793529E-3,-3.4361798E-3],"categories":[],"categories_nodes":[],"categories_segments":[],"categories_sizes":[],"default_left":[0,0,0,0,0,0,0],"id":135,"left_children":[1,3,5,-1,-1,-1,-1],"loss_changes":[8.485601E0,7.370559E1,6.1128235E-1,0E0,0E0,0E0,0E0],"parents":[2147483647,0,0,1,1,2,2],"right_children":[2,4,6,-1,-1,-1,-1],"split_conditions":[2E0,1E0,1E0,-1.7896964E-4,2.4219105E-2,-6.793529E-3,-3.4361798E-3],"split_indices":[3,3,6,0,0,0,0],"split_type":[0,0,0,0,0,0,0],"sum_hessian":[8.4E3,8.171E3,2.29E2,8.059E3,1.12E2,1.52E2,7.7E1],"tree_param":{"num_deleted":"0","num_feature":"9","num_nodes":"7","size_leaf_vector":"1"}},{"base_weights":[-4.9046183E-5,-9.755196E-3,1.0398416E-1,-6.602099E-4,2.3679927E-3,1.821795E-3,3.6216255E-2],"categories":[],"categories_nodes":[],"categories_segments":[],"categories_sizes":[],"default_left":[0,0,0,0,0,0,0],"id":136,"left_children":[1,3,5,-1,-1,-1,-1],